non-rebreather 0.004575908649712801 -0.001844249083660543 -0.0020603248849511147 -0.002221372677013278 6.914639379829168E-4 0.004790176171809435 -0.0017202773597091436 -0.004026124719530344 0.0029966311994940042 0.0026028817519545555 0.0036610865499824286 5.568843916989863E-4 -0.0018700737273320556 -0.0033344686962664127 -0.0031369924545288086 0.002869729418307543 -1.045584667735966E-5 -0.0034466474317014217 0.0035596478264778852 0.003773944452404976 0.004526093136519194 -0.0023147177416831255 0.0043937102891504765 -0.0013398772571235895 0.004499273840337992 4.435729933902621E-4 -0.003617812879383564 -0.0017544514266774058 4.710113862529397E-4 5.871415123692714E-5 0.0013860595645383 -0.003944915719330311 -4.288154887035489E-4 0.0022048181854188442 0.002743117744103074 -0.0039901346899569035 7.878094911575317E-4 0.0012731277383863926 -0.0032027466222643852 -0.0020536608062684536 -6.126859807409346E-4 -0.0020977568347007036 -0.003342962823808193 -3.4085780498571694E-4 -0.0030920079443603754 0.003903335426002741 -2.485346922185272E-4 -5.092871142551303E-4 0.0048815105110406876 -0.0015413046348839998 0.001771489973179996 0.0030178381130099297 -0.002461374970152974 -1.7070650937967002E-4 -0.002027141395956278 -0.001133087556809187 -0.0010482892394065857 0.004524224903434515 0.0020146011374890804 -0.0033181787002831697 0.0033514457754790783 -0.002392869209870696 0.0029133737552911043 -1.9938797049690038E-4 -0.002626403933390975 0.001034337910823524 -0.0019098770571872592 0.0020252554677426815 -0.0022594109177589417 0.003323307726532221 3.966599761042744E-4 4.205173172522336E-4 -0.0032059878576546907 0.004899195395410061 -0.0031926739029586315 -0.004757657181471586 -0.0019405954517424107 -3.8569330354221165E-4 0.0025218110531568527 -2.979222044814378E-4 0.0010332852834835649 -0.002943601692095399 0.003790423274040222 -0.004143567755818367 0.0049555194564163685 -0.004190561827272177 -0.00417098356410861 5.770850111730397E-4 0.0026536874938756227 -0.004862199537456036 0.002015563892200589 0.0027484679594635963 -4.347819194663316E-4 -0.0011072361376136541 0.0027122681494802237 6.795877125114202E-4 -0.0010437214514240623 -0.0020980050321668386 -0.0029862206429243088 0.003827318549156189
in 0.0018900507129728794 -0.0035347663797438145 -0.0022427395451813936 0.0013930493732914329 8.640694431960583E-4 0.0038870596326887608 0.003708121133968234 2.8224586276337504E-4 -1.8216401804238558E-4 9.528720402158797E-4 -0.004022181034088135 0.004186376929283142 0.0033124899491667747 0.004903929308056831 0.004908744245767593 2.9763818020001054E-4 -0.00360853667370975 -4.5439033419825137E-4 -0.003433803329244256 7.552373572252691E-4 0.004071827046573162 0.0016321075381711125 0.004422047175467014 -7.185924332588911E-4 -0.001164217945188284 -0.0015682467492297292 3.230094807804562E-5 -0.003769869916141033 -0.0011718624737113714 -0.004676499869674444 -0.002333975164219737 0.0046500856988132 0.0027277010958641768 0.004770415369421244 0.0022418838925659657 -0.004424062557518482 -0.0015647849068045616 0.0011919373646378517 0.002977572614327073 -9.079468436539173E-4 0.0043207500129938126 0.0020249891094863415 -0.00283508887514472 -0.0035075144842267036 -0.0028595984913408756 0.0019939667545259 0.0034236388746649027 -0.004361263010650873 0.00389436655677855 0.003964378032833338 5.301970522850752E-4 -0.002099598292261362 0.0033151942770928144 -0.0018208122346550226 -0.0023535245563834906 0.0011261987965554 -0.003727728733792901 0.0039766402915120125 -0.004948828369379044 -0.001721220905892551 -8.710101246833801E-4 0.004167707171291113 6.370305782184005E-4 -0.0049692727625370026 -0.003656701184809208 -6.417724653147161E-4 -0.0010339078726246953 -0.0022932894062250853 -4.084465035703033E-4 -0.0039056793320924044 -7.043564110063016E-4 0.0029320858884602785 5.482196866068989E-5 -3.281366953160614E-4 -0.0047334362752735615 -0.0031081971246749163 0.001198840793222189 -0.0013800832675769925 -0.00283547630533576 -0.0022300223354250193 0.003759224433451891 0.002318765502423048 -0.0035360942129045725 0.0042622145265340805 0.0017503815470263362 0.0017693060217425227 0.0018738341750577092 -0.0046206386759877205 0.0011572354706004262 -0.00444169994443655 0.0021026665344834328 -0.0013655915390700102 0.003919831942766905 7.83630006480962E-4 0.0048429411835968494 0.0013471912825480103 0.003790255170315504 0.0038661861326545477 -0.00312442472204566 -0.0017504707211628556
packed -0.004004302434623241 0.0019498008769005537 0.002653993433341384 0.003927676472812891 -6.204575038282201E-5 -0.0012863948941230774 -0.004190653096884489 0.0027648466639220715 0.0013744592433795333 -0.0012037777341902256 -0.003756173187866807 -0.004963775165379047 0.00443620840087533 -3.811001806752756E-5 -0.00321081280708313 7.245683809742332E-4 -0.002063199644908309 -0.0019083487568423152 0.004634324461221695 0.004875065293163061 -1.3927459076512605E-4 -0.0027829427272081375 -0.001676799962297082 0.004088347777724266 0.001575449132360518 -0.001369047211483121 0.0011423873947933316 -0.0015923446044325829 8.348673582077026E-4 0.0019735509995371103 -6.440553115680814E-4 -0.0044459751807153225 -0.0019943886436522007 -0.004323551431298256 -0.0018463555024936795 0.0033899289555847645 0.00440862774848938 0.003927675075829029 -0.0010456746676936746 -4.045575769850984E-5 -0.0029521891847252846 -0.0020144626032561064 -0.0038560880348086357 0.0022877203300595284 6.049674702808261E-4 -0.0029911252204328775 -0.00422830693423748 -0.0032903861720114946 0.004217265173792839 0.0017286556540057063 0.002677656477317214 -0.004750631283968687 -0.002393052214756608 -0.0029983040876686573 -6.074407720007002E-4 -0.0015626695239916444 -0.003914637956768274 0.0023754124995321035 0.0022387367207556963 0.004181352443993092 -0.003873754059895873 -0.0017830765573307872 -0.0010936862090602517 -0.00120936066377908 -0.004831268917769194 0.004491099622100592 -0.003604145720601082 0.001114624785259366 0.003945293836295605 -0.0030993882101029158 4.7687412006780505E-4 1.9237876404076815E-4 0.004423385486006737 -4.673787916544825E-4 2.0118475367780775E-4 -0.0016914281295612454 -0.004987457301467657 -1.778930345608387E-5 0.003859171876683831 0.0018987548537552357 -0.002166764810681343 0.001715195132419467 0.003839536802843213 0.004820174537599087 0.004315909929573536 -0.002501347102224827 0.002599372761324048 0.0027533096726983786 0.004886897746473551 0.004090862814337015 7.945889374241233E-4 -0.00430813804268837 -2.9482244281098247E-4 -0.0039954776875674725 -0.001960743684321642 -9.858927223831415E-4 -0.003566072089597583 0.004155613016337156 -0.0039024893194437027 0.0035209758207201958
finished -0.0015417205868288875 -0.003384202718734741 -0.0016942694783210754 -1.8077791537507437E-5 0.0029979092068970203 -0.002775000873953104 0.003224738873541355 7.595270872116089E-4 -8.84983513969928E-4 -6.032109376974404E-5 -0.002990991808474064 -0.0032431394793093204 -0.004606523551046848 -2.177208625653293E-5 0.00159921171143651 -0.002477979985997081 -5.492112250067294E-4 0.003421275643631816 -0.004433156922459602 0.004847124684602022 -0.0046449447982013226 0.004354051314294338 -0.0032996898517012596 -0.001341344672255218 0.002592011122033 -0.0015622767386958003 0.002233271487057209 0.002767387079074979 0.003332361578941345 0.003031695494428277 -3.193831362295896E-4 -3.1040250905789435E-4 0.0011598849669098854 -0.0028747052419930696 0.0020846754778176546 0.0010117042111232877 -0.004076824057847261 0.0024367524310946465 0.0022245680447667837 -0.003861245233565569 -1.9063203944824636E-4 -0.004019611515104771 0.003875894006341696 0.004257955122739077 -0.00199170527048409 0.0026868039276450872 0.0017208915669471025 -0.0028458579909056425 4.5406282879412174E-4 0.003290205029770732 -0.0036411278415471315 -0.00217261235229671 -3.9588750223629177E-4 7.09021114744246E-4 0.003622721415013075 -0.004092572256922722 9.803259745240211E-4 -0.0030568940564990044 -0.003530433401465416 0.004622671753168106 -0.003957210574299097 -0.001554852700792253 0.001729643321596086 -0.0017655912088230252 -0.003343088086694479 0.002192697487771511 0.003215345088392496 -0.004752849228680134 -3.906449710484594E-4 0.004211436957120895 -0.0027153140399605036 1.9328475173097104E-4 -0.004426954314112663 -0.0014054744970053434 4.7907410771586E-4 0.002057587495073676 -0.004769267048686743 0.004907832946628332 -0.0026179265696555376 0.0032973289489746094 -0.003764347406104207 0.0018448930932208896 0.0012269008439034224 0.002531813457608223 -4.341879393905401E-4 7.106256671249866E-4 -0.004826446529477835 -0.004112650640308857 -0.0034946268424391747 -3.8011997821740806E-4 -0.0016944173257797956 -0.004665499087423086 0.0030133426189422607 -0.002241784241050482 0.003761380212381482 0.0011894506169483066 0.004067625850439072 -0.0021045508328825235 0.004025076050311327 5.099648260511458E-4
utis 0.0017820674693211913 5.292833084240556E-4 0.0028754461091011763 0.0033607352524995804 -0.004236540291458368 -0.002762076910585165 0.00489116832613945 -8.795926114544272E-4 0.0023671388626098633 0.0045743840746581554 0.004650926683098078 0.0037894921842962503 0.004352818243205547 0.0011381428921595216 0.001120285945944488 0.002925965702161193 -0.004102626815438271 0.0034268153831362724 3.9107262273319066E-4 0.004641533363610506 0.0040693567134439945 0.0017077093943953514 5.364417887676609E-8 -3.588903055060655E-4 0.0021376335062086582 0.003737314837053418 -0.0012718853540718555 0.0028982358053326607 6.905067129991949E-4 5.245423526503146E-4 3.383767616469413E-4 2.7037799009121954E-4 6.30089663900435E-4 0.0024165534414350986 -7.766070775687695E-4 -0.003109457902610302 0.0035272270906716585 6.417155382223427E-4 -0.00479500787332654 -0.0034721367992460728 0.003317310241982341 -0.00494348956272006 -0.0015458494890481234 -0.004399809055030346 7.467347313649952E-4 0.0028460926841944456 -0.004324639216065407 0.0031151913572102785 -0.004347357898950577 0.0027484684251248837 4.5501350541599095E-4 -0.003988425713032484 -0.0010807639919221401 0.0031158633064478636 0.0036672514397650957 -1.1124640877824277E-4 0.003477717051282525 -0.0011551034403964877 -0.0013739997521042824 -0.0036521735601127148 -0.0030833727214485407 1.278221589018358E-5 -1.034647266351385E-5 0.0029755872674286366 0.00244744960218668 0.002051049377769232 -0.002863130532205105 -0.0034144120290875435 -0.004624867346137762 9.640705538913608E-4 0.004463677294552326 -5.594378453679383E-4 -0.0043269856832921505 0.0011630713706836104 4.887396353296936E-4 0.0041135456413030624 -0.004704771563410759 1.4120221021585166E-4 -0.0028269081376492977 -0.0031455056741833687 -0.002761787734925747 0.002648572903126478 -0.0047772713005542755 0.004729387350380421 -0.0015877034747973084 -0.004999141208827496 -0.0023815538734197617 0.001837213640101254 0.002161472337320447 -2.867972943931818E-4 -0.0026121712289750576 0.0025950747076421976 -0.0012443548766896129 9.55458264797926E-4 0.00295265088789165 0.002762196585536003 -0.003588070161640644 2.3588001204188913E-4 -0.0019445950165390968 -0.00428002281114459
andhematocrit -0.0016087614931166172 -7.908940315246582E-4 0.0037699686363339424 0.0034911639522761106 -0.002683693775907159 0.004655933007597923 6.691360613331199E-4 -0.00112528121098876 0.0034418832510709763 -0.003479795530438423 -0.0017106086015701294 -6.440398283302784E-4 0.0021120035089552402 -0.004920853767544031 -0.0030481794383376837 0.003618270857259631 -0.002558626001700759 0.004759116098284721 -0.004909995011985302 -0.003563005942851305 -0.004714014008641243 -0.0010111870942637324 -3.44440049957484E-4 -0.0028668127488344908 0.004711988382041454 -0.004240919835865498 -0.002848672214895487 0.0033427828457206488 0.0016912430291995406 2.678936580196023E-4 1.9316136604174972E-4 0.0013758838176727295 -0.003781569190323353 0.003248933469876647 0.002599181607365608 0.004991084802895784 0.0015339243691414595 -0.0028084737714380026 -0.002859864616766572 9.131956030614674E-4 -0.0031217806972563267 -0.0026566532906144857 -0.0021724989637732506 0.0028872089460492134 -0.0019295242382213473 -0.003760653780773282 -0.002613723510876298 -0.004362905398011208 -0.0015252870507538319 0.004539969377219677 -0.0027317204512655735 0.0010577153880149126 0.0038578815292567015 0.004009176045656204 -0.0026738608721643686 -0.002920204307883978 -0.0026481610257178545 9.395080851390958E-4 0.0035324501805007458 3.5739302984438837E-4 -0.004024977330118418 -0.0037841808516532183 -0.0028248291928321123 0.0018556416034698486 -0.00217376253567636 0.002107455162331462 -0.003636614652350545 -0.0035939591471105814 -0.003552032168954611 -0.0010267969919368625 -0.002795588690787554 0.0017674851696938276 0.0032131129410117865 -0.0011064251884818077 2.8743446455337107E-4 -2.7019978006137535E-5 0.003138003870844841 -0.0014099935069680214 0.0025014865677803755 0.004138010088354349 0.004137035459280014 -0.004065736662596464 -0.0029126047156751156 0.00455679465085268 -0.001740006497129798 -0.001928731449879706 0.0021204727236181498 0.0017573707737028599 -0.0023411952424794436 0.002005332615226507 -6.982034537941217E-4 4.136848438065499E-4 -0.0039026408921927214 -0.002473111730068922 0.003796990029513836 0.002435405272990465 -3.319349780213088E-4 -0.004000581335276365 -0.002480326686054468 -0.002691386267542839
patient 7.839375757612288E-4 -0.0010988268768414855 0.0034648829605430365 0.004119057208299637 3.998488245997578E-4 0.0025175404734909534 0.004482933320105076 0.004218395799398422 -0.0011604338651522994 0.002535215113312006 -0.0016330551588907838 -2.808475401252508E-4 0.003926767501980066 -0.002227412536740303 -0.0019203373230993748 0.0045502143912017345 -0.003262199694290757 0.003541849320754409 -0.0017480510286986828 -5.012753535993397E-4 0.0014930409379303455 0.0038832395803183317 6.735515780746937E-4 0.0013690537307411432 0.0038995069917291403 -0.0015550712123513222 -2.0857334311585873E-4 -0.0017597860423848033 9.190559649141505E-5 -0.001151931006461382 -0.0032990961335599422 -0.003977686166763306 -0.0030912840738892555 -0.0038978992961347103 -0.004633012227714062 -0.0031399123836308718 0.004662742838263512 0.00173369946423918 -8.441081736236811E-4 -0.0035509751178324223 6.971692782826722E-4 -0.0043287198059260845 1.586151192896068E-4 0.0016958474880084395 -8.174270624294877E-5 0.0027797704096883535 0.004810814745724201 -0.004362383857369423 -0.0030433321371674538 0.0032301361206918955 0.0027672694995999336 -0.0036660784389823675 1.6386866627726704E-4 -0.0019474354339763522 -0.003060953924432397 0.002458119997754693 -6.304323324002326E-5 0.0037890744861215353 -0.0011913314228877425 -0.004566628020256758 -7.975748158060014E-4 -0.0032408542465418577 -0.003031888511031866 6.155723240226507E-4 0.0011926478473469615 -0.0017307746456936002 -5.814626929350197E-4 -0.0032206387259066105 9.086602949537337E-4 -0.002752840518951416 -0.0035024904645979404 -0.0013609150191769004 0.004711414687335491 -0.004950721748173237 -1.4699310122523457E-4 0.0016084546223282814 -0.0031790456268936396 0.0013677513925358653 0.001260587596334517 -0.0012345892610028386 0.0021663939114660025 0.004831463564187288 0.0027154278941452503 0.0024054264649748802 0.0015226673567667603 7.527488633058965E-4 0.00315704639069736 -0.0016706299502402544 -7.075655739754438E-4 -0.004954334814101458 -0.0016960721695795655 0.0033423411659896374 -0.004853746388107538 -0.0015933054964989424 -0.0027174074202775955 0.0022702598944306374 -0.0033957380801439285 0.0036253745201975107 -0.004663961939513683 -0.002328818431124091
amiodaroneexam -0.0033720294013619423 0.0028094397857785225 0.004731510300189257 -2.9063166584819555E-4 0.0016885470831766725 0.00431765615940094 -2.4923085584305227E-4 0.0014660977758467197 -0.0021844813600182533 -0.003031638916581869 7.766193011775613E-4 -0.0030294274911284447 2.1511196973733604E-4 -0.0048317452892661095 0.00496496818959713 -0.00438952399417758 7.04374338965863E-4 0.0030337595380842686 0.00282677891664207 0.0027186889201402664 -0.004923110827803612 -0.003534562885761261 0.004511424805969 -6.4702273812145E-4 0.0028485036455094814 -0.004224571865051985 0.0012932056561112404 -0.0013559391954913735 0.0038860845379531384 -0.0016403511399403214 0.0041070557199418545 -0.004198001231998205 7.728367927484214E-4 -0.003008859232068062 0.001397168030962348 -0.003017212264239788 -0.004792728461325169 -0.0017802352085709572 -0.0035145385190844536 -5.385223194025457E-4 -3.976035222876817E-4 -0.0013399124145507812 0.0025212157052010298 0.001893560285679996 -0.001974887913092971 0.0028908068779855967 -0.0010431036353111267 -0.0012724584667012095 -0.004987703636288643 -0.0036448121536523104 -0.004773296881467104 -0.004137455951422453 0.0048369430005550385 4.7440826892852783E-4 0.004360830876976252 0.0021140784956514835 -0.00406674575060606 -0.0013436212902888656 -0.0032830704003572464 -0.0035791005939245224 0.0010486465180292726 0.002697482006624341 4.412591442815028E-5 -0.002887518610805273 -4.953015013597906E-4 -1.661488349782303E-4 0.0023296833969652653 0.0010356736602261662 8.89844901394099E-4 -0.004496611189097166 0.003739392850548029 0.0017215829575434327 -2.6444674585945904E-4 -0.0014791375724598765 -7.833034032955766E-5 0.0032563554123044014 0.0014501011464744806 0.0021972281392663717 -0.0024164810311049223 -0.0042265295051038265 -6.71904708724469E-4 8.726859232410789E-4 1.8123329209629446E-4 0.004267239943146706 0.0023634331300854683 -0.004394063260406256 -2.644190099090338E-4 -0.0023806279059499502 -0.004769694525748491 -0.0026595797389745712 0.003394004190340638 0.0017579043051227927 0.0046831537038087845 -1.0952562297461554E-4 0.0018734968034550548 0.003738490864634514 -0.002415938302874565 9.377050446346402E-4 0.0023180872667580843 -5.994397215545177E-4
concerning 0.0016691148048266768 -0.0032768547534942627 -0.00414599385112524 -0.0025082575157284737 0.002025844994932413 7.610857574036345E-5 -0.0011210336815565825 -7.397854351438582E-4 -0.00499320961534977 -0.0021983084734529257 -5.850839661434293E-4 0.0034283148124814034 0.0027423405554145575 -0.0020222095772624016 7.613968919031322E-4 0.0016970854485407472 -0.0027666869573295116 -0.0042146979831159115 -5.478441598825157E-4 -0.004400051664561033 -0.0045127905905246735 -0.002911900170147419 0.003543962724506855 0.0048024412244558334 0.003370998427271843 0.004870069213211536 -0.004241509363055229 -0.003325681434944272 0.004722484853118658 0.0017524611903354526 0.003547275671735406 -0.004215461667627096 -0.003913423046469688 -8.47229384817183E-5 0.004130026791244745 0.002369730966165662 -0.0019702324643731117 0.004397957120090723 -0.0033845126163214445 0.004369283095002174 0.003007284365594387 0.003017587121576071 0.0017129534389823675 0.003050774335861206 -0.0048729488626122475 -5.206287023611367E-4 0.002205283148214221 -0.0017361860955134034 -0.0031775939278304577 0.0036348612047731876 -6.147187668830156E-4 -0.004188002552837133 -0.004565340466797352 0.001762123079970479 7.47057783883065E-4 0.004640215076506138 0.004574669525027275 -0.0038671460933983326 0.0033054042141884565 9.627050021663308E-4 0.001453980803489685 0.004810587037354708 -0.001926372991874814 -0.0031741189304739237 -0.004528141114860773 -9.732884354889393E-4 0.004650052636861801 8.454340859316289E-4 6.024896865710616E-4 -0.004886473063379526 -0.002039956860244274 0.004959068261086941 -0.0027706779073923826 -0.001382540795020759 0.004181176424026489 0.004479658789932728 0.003731565549969673 0.002083237748593092 0.002276646438986063 -0.0038960082456469536 0.002119016135111451 -0.0010947713162750006 -4.212111161905341E-5 -0.0028452081605792046 -0.0013037696480751038 -0.0014310994883999228 0.0037925017531961203 0.0035120141692459583 -0.004552836064249277 9.09430964384228E-4 0.001964008202776313 -0.004503707401454449 -0.002237882697954774 0.0020101768895983696 -6.806120509281754E-4 0.0031651544850319624 0.0041664899326860905 -0.00223280256614089 -4.0511577390134335E-4 -0.0026163512375205755
kayexylate 0.0035744397900998592 -0.0026993132196366787 0.0022867387160658836 0.003449093084782362 -0.003486700588837266 0.0015621345955878496 -3.7446440546773374E-4 -0.004191518761217594 0.004098787903785706 0.0021666265092790127 4.26576123572886E-4 -0.003345745848491788 0.004764191340655088 6.344408029690385E-4 -2.695023977139499E-5 0.0048319618217647076 0.0015275037148967385 0.0030486106406897306 2.655017306096852E-4 -0.002099402481690049 -9.778630919754505E-4 -3.071486935368739E-5 0.004857491236180067 0.0026122957933694124 0.003460925305262208 0.004683814477175474 9.95804090052843E-4 -0.0017694130074232817 7.665806915611029E-4 0.004135836847126484 -0.001793363131582737 0.004905038978904486 -0.0030372068285942078 0.004079680424183607 -3.5042373929172754E-4 -0.0017164847813546658 0.0025768906343728304 -0.0015870206989347935 0.004809631500393152 0.0044864388182759285 -2.1249533165246248E-4 -0.004281017929315567 0.0017261600587517023 0.0035904967226088047 0.0025712717324495316 0.004834125749766827 -0.004337083548307419 0.001447084592655301 0.0037094515282660723 -0.003365139476954937 -0.001240545534528792 -0.0018969783559441566 0.00408909423276782 0.0038285565096884966 0.0017841291846707463 -0.004570560529828072 -1.2504517508205026E-4 0.0010211723856627941 -0.0032526939176023006 0.003908535465598106 -1.5692233864683658E-4 0.001041166833601892 8.996272226795554E-4 -0.004976766183972359 0.004690539091825485 -0.004263740032911301 9.804952424019575E-4 3.3061683643609285E-4 9.522605105303228E-4 0.004534813575446606 -0.001014654291793704 0.004902934655547142 -0.0024915754329413176 -0.004520214628428221 0.0025925468653440475 -0.00456466618925333 0.0026285755448043346 -0.004911645781248808 0.0024006885942071676 0.004843832924962044 -0.004469254985451698 -0.004251381848007441 1.814484567148611E-4 4.899144187220372E-5 -0.0016532903537154198 -0.0013633674243465066 -0.003088147146627307 0.0021035808604210615 0.004039171151816845 5.402237293310463E-4 -0.0020462905522435904 -0.0023120036348700523 -0.004817832261323929 -0.004638170823454857 0.0031967954710125923 -0.0037532318383455276 0.0032083464320749044 0.00476650008931756 -1.1287838424323127E-4 -0.0028893332928419113
aphasia -0.0038343635387718678 -0.0015400281408801675 0.004350540228188038 -0.0039777145721018314 0.0025857740547508 0.002413117792457342 -0.00405857153236866 -0.004231864586472511 0.0012023550225421786 0.0030017311219125986 2.8507172828540206E-4 -5.486157606355846E-4 -0.002237927634268999 -0.001395629020407796 0.0025899119209498167 -0.003067027311772108 -0.0046064592897892 4.725849721580744E-4 -0.004986177664250135 0.004716909024864435 -0.0035053205210715532 0.0049482774920761585 0.0037967157550156116 -0.004837092012166977 0.0038140558172017336 1.5850782801862806E-4 -0.003934174310415983 0.0044936989434063435 0.0011296182638034225 0.004418500233441591 9.826183086261153E-4 -0.004739885684102774 -0.0023776842281222343 -0.001109849545173347 0.004241016693413258 0.00398090947419405 -6.089967209845781E-4 0.0018776804208755493 0.001721689710393548 0.0030645125079900026 0.0024395985528826714 -1.0651796765159816E-4 0.0024030113127082586 0.0031967919785529375 -4.926863475702703E-4 0.0018960690358653665 0.0033216362353414297 -0.003286338411271572 -0.0011531806085258722 0.0012125808279961348 0.003446168964728713 0.002598916180431843 -5.524560692720115E-4 8.637309292680584E-6 -9.113448904827237E-4 0.0038417470641434193 0.0024863719008862972 -0.004832685459405184 0.0030489300843328238 0.0021446258760988712 0.0015979480231180787 -7.905826205387712E-4 -0.002895532175898552 0.0010881322668865323 0.0035604017321020365 0.004250059835612774 -0.004938886035233736 5.471885378938168E-5 -0.001000984339043498 -0.0025240126997232437 -5.422243266366422E-4 0.0048419940285384655 0.004005364142358303 -0.004047126043587923 -0.004120275378227234 0.0035196496173739433 0.004747027065604925 -3.4529209369793534E-4 0.0016792386304587126 -0.0049333758652210236 9.538006852380931E-4 -0.004600233864039183 0.0035651945509016514 -0.004133128095418215 -0.004254789091646671 -8.930236072046682E-5 -0.004278866108506918 -5.934512591920793E-4 -0.004344478715211153 0.0026362896896898746 0.002870416035875678 -1.0072260920424014E-4 -0.003607683116570115 -0.001472454983741045 5.907982704229653E-4 2.1352530166041106E-4 7.486265967600048E-4 -9.073481196537614E-4 -0.001957695232704282 0.004223433323204517
urology -0.003702376736328006 -0.0031788814812898636 0.00263717002235353 -0.0016407060902565718 0.0010731262154877186 -0.004037590231746435 0.0016271156491711736 -0.00485759973526001 -3.9702176582068205E-4 0.0028820193838328123 3.403657756280154E-4 -0.00476735970005393 -0.0039922259747982025 7.838582969270647E-4 -0.002796875312924385 0.003176025114953518 -0.004281016997992992 -0.00489321444183588 -0.0030792916659265757 0.0016779399011284113 -0.0018460607388988137 -0.001918224385008216 -0.003366317367181182 0.00476367911323905 0.003387535223737359 -0.004940953105688095 -0.00472899479791522 -7.809376693330705E-4 -0.004861398134380579 -3.401067806407809E-4 0.004144304897636175 -0.004489239305257797 0.0018113190308213234 -9.080267045646906E-4 0.003130338853225112 0.003941457252949476 -9.525090572424233E-4 -0.0024420360568910837 2.7032673824578524E-4 2.756303583737463E-4 -0.0022959010675549507 -0.0033229347318410873 0.0038117635995149612 -0.0018734803888946772 0.004993197973817587 0.0010496133472770452 -0.0027070771902799606 0.0014215224655345082 -0.0046117352321743965 -0.0012440425343811512 0.002763065043836832 -7.723745657131076E-4 0.0037845068145543337 -0.001141199143603444 -0.0033281990326941013 -0.0026892221067100763 0.0020916175562888384 5.6013761786744E-4 0.0013854641001671553 -0.0046092551201581955 6.05223176535219E-4 -0.0038493028841912746 -0.002995322458446026 0.004388717468827963 0.004699546843767166 0.0016422647750005126 -0.003128067357465625 0.0041900514625012875 8.400738006457686E-4 -3.806737076956779E-4 -0.0015678140334784985 0.0017307394882664084 -0.004240377340465784 -9.673991589806974E-4 -0.0013050094712525606 -0.004156812559813261 0.0015762364491820335 0.0027520591393113136 0.004241330083459616 -0.002295513404533267 -0.004351600538939238 0.003909321967512369 0.0031203371472656727 -9.30003821849823E-4 -0.0030097931157797575 -0.004230624530464411 -0.0027783364057540894 -0.0036426198203116655 0.00243553938344121 -0.0045588756911456585 -0.0032053207978606224 0.004641034174710512 0.0011630291119217873 0.002503020688891411 -0.004874361678957939 0.004850366618484259 -1.4011979510542005E-4 -0.0016259676776826382 -0.0013443254865705967 -8.886629366315901E-4
nauseavomiting -0.0030096694827079773 0.001519646029919386 0.0018003206932917237 0.004554539453238249 -5.551919457502663E-4 -0.002070364076644182 0.003730046097189188 0.0031462633050978184 -0.004891884513199329 -5.062464042566717E-4 -0.003904916113242507 -0.003938728477805853 0.004599603358656168 -0.0035382516216486692 -0.0031076879240572453 -0.003938177600502968 0.0038917940109968185 -0.002206322504207492 0.0019025414949283004 0.0028866934590041637 0.002924930537119508 0.0036292625591158867 0.0033100813161581755 0.003326305653899908 -0.001033714972436428 -0.001109987497329712 7.733756210654974E-4 -0.003948852885514498 5.9618114028126E-4 0.0028359098359942436 -0.0027746977284550667 0.0012023288290947676 -0.0038536274805665016 4.926103283651173E-4 -0.0012371295597404242 4.4911683653481305E-4 0.0046507311053574085 9.076982969418168E-4 -0.0010613644262775779 7.540899678133428E-4 8.395731128985062E-5 3.950280079152435E-4 6.1833142535761E-4 3.413295780774206E-4 0.0019909185357391834 -5.109149497002363E-4 -3.4059942117892206E-4 -0.0026844218373298645 -0.004968023858964443 -0.002129417611286044 0.003824812127277255 -0.004383157007396221 0.003751559881493449 0.004102540668100119 8.278846507892013E-5 0.003861598437651992 -0.0041167475283145905 8.14859289675951E-4 -9.92496614344418E-4 0.004638416226953268 0.0013434672728180885 -8.728489046916366E-4 -0.0036549323704093695 -0.0034066159278154373 0.004424371290951967 -0.004158980678766966 0.00405908701941371 0.0016580336960032582 -0.004384357947856188 -0.002318940358236432 -5.621918826363981E-4 -0.0012150817783549428 0.004416623618453741 -0.004622825887054205 -0.004251123405992985 1.7637670680414885E-4 -0.0018858915427699685 -0.0037673795595765114 0.003659142879769206 1.322579337283969E-4 -7.655766676180065E-4 -0.003452584147453308 1.1216462007723749E-4 0.003938114270567894 7.733994862064719E-4 -0.0022306684404611588 -0.001701523084193468 0.0030380331445485353 0.003823304083198309 0.0013477676548063755 -0.0035862443037331104 -8.323609945364296E-4 -0.0018601772608235478 -0.004483758471906185 0.001036278554238379 0.003635041182860732 0.004538021050393581 0.0013699710834771395 0.001492273760959506 0.001988156931474805
balloon 0.00320093403570354 -0.0034244940616190434 0.004912174306809902 -2.5606065173633397E-4 0.0014162474544718862 0.003053004154935479 -0.001643794123083353 -0.001119689317420125 -0.0014063644921407104 0.0014713573036715388 -0.003749891184270382 0.003793466603383422 -0.0030391805339604616 0.0039954716339707375 -7.201737025752664E-4 -0.0049635074101388454 0.002930780639871955 0.0026012789458036423 -0.004434800706803799 -2.2308826373773627E-5 0.004840068053454161 -0.0013252577045932412 -0.00146155443508178 -0.004413447808474302 8.883678819984198E-4 -0.0035725701600313187 0.004456899594515562 0.0035922236274927855 -3.3874958171509206E-4 0.0036188994999974966 -0.003538556629791856 -0.0014553767396137118 -0.0014601802686229348 0.0034916806034743786 -0.0017338645411655307 0.0011970173800364137 9.077370050363243E-4 0.0040932949632406235 -0.0042594801634550095 -0.0016553705791011453 0.0015123761259019375 -0.0021363392006605864 -8.756068418733776E-4 0.002914304146543145 -1.286840415559709E-4 -0.002325731795281172 0.002837051171809435 0.0032105827704072 0.001759899314492941 -0.002912167925387621 -0.0025101869832724333 -0.004773773718625307 -8.936226367950439E-4 -0.002768694655969739 -0.0020792847499251366 0.003263032529503107 9.071618551388383E-4 -0.004810180980712175 0.004563435446470976 0.002868955722078681 7.226353627629578E-4 -0.004298543557524681 0.0021531707607209682 0.0044110924936831 0.0011202776804566383 -0.002511268015950918 0.002306771231815219 0.002822563052177429 0.001178422593511641 -1.1950999760301784E-4 0.004433727823197842 0.002037143101915717 -0.004298470448702574 3.999692271463573E-4 -0.0032825679518282413 -0.004864530172199011 0.0010620451066643 0.004334835335612297 -0.0011006412096321583 -0.004983698483556509 -0.0018749129958450794 -0.0041696070693433285 -1.8152236589230597E-4 -0.0016940790228545666 -0.004300902131944895 0.002146455692127347 -0.003932411316782236 0.00268929242156446 0.0023455857299268246 7.61913659516722E-4 -0.001883301418274641 -8.980685379356146E-4 -0.0035603283904492855 -0.004331599920988083 0.004493717569857836 0.004942270461469889 0.001296201371587813 6.842022994533181E-4 0.003018798306584358 -0.004478065297007561
wason 0.0019983071833848953 -1.8239706696476787E-4 0.003726514521986246 0.004482109099626541 7.705652969889343E-4 -3.701132663991302E-4 -0.004477661103010178 0.0035429936833679676 1.1110722698504105E-4 -0.0026762643828988075 -0.0015058141434565187 0.002665998414158821 -0.0017089182510972023 -0.00274931569583714 9.279519435949624E-4 -0.00452402513474226 0.0010052936850115657 -0.003507832996547222 0.0016842824406921864 -0.002842252142727375 0.004748126957565546 0.004289847798645496 -3.5552174085751176E-4 0.004954871721565723 0.003963870462030172 -0.001383215538226068 -8.169228094629943E-4 -0.0010096150217577815 -0.0027267509140074253 0.003333601402118802 6.641423678956926E-4 0.0035739094018936157 0.002613188698887825 0.00195161288138479 -0.0018052124651148915 -0.003154975129291415 -9.957760339602828E-4 0.003042175667360425 -0.002597708720713854 -0.0027952545788139105 -0.00328650139272213 -0.0025837563443928957 0.0017844855319708586 2.3889542717370205E-6 0.004924259148538113 0.00374073744751513 0.003400444984436035 -0.0012077793944627047 0.0023323316127061844 0.004676301497966051 -0.004055427387356758 5.967473844066262E-4 0.004645707551389933 0.004739709664136171 0.004077725578099489 -7.994848419912159E-4 -0.0032153339125216007 -0.003072771243751049 0.001059229369275272 0.0040804739110171795 0.0024324804544448853 0.004813801031559706 -3.919494047295302E-4 -0.004804412834346294 -0.002926737768575549 0.0020969028118997812 0.004526856355369091 2.065461885649711E-4 -0.004597908351570368 0.00413726270198822 -0.002568566706031561 0.004400970414280891 0.003598144743591547 -3.7829994107596576E-4 0.004777078051120043 9.961342439055443E-4 0.0020837413612753153 0.003136669285595417 -0.0011226630304008722 -0.0027271071448922157 0.0013664924772456288 0.0033688850235193968 -0.0038425105158239603 -0.004076490644365549 -0.0029535896610468626 -0.001094423234462738 0.0015661322977393866 -0.00398998660966754 0.004753853194415569 -0.0021532494574785233 -0.00328027899377048 -0.0035962772089987993 -0.0033851019106805325 0.003185056382790208 -0.0028026422951370478 0.004950497765094042 0.003533016424626112 -6.308513693511486E-4 -0.0016028785612434149 0.004142164718359709
tylenol 0.0012943660840392113 0.0034114026930183172 -0.0031252980697900057 -0.0030677784234285355 4.3737830128520727E-4 -0.002982088830322027 0.004486914724111557 -0.0041801780462265015 -4.6044171904213727E-4 4.2883813148364425E-4 -0.0031870692037045956 0.003175608580932021 0.002943863160908222 6.758928066119552E-4 0.001951471553184092 -0.0017212677048519254 -5.325073143467307E-4 -7.243928266689181E-4 2.3982465791050345E-4 -0.0022912833373993635 -0.004115123301744461 0.0023812483996152878 -0.001570930820889771 3.348374448250979E-4 0.0034331304486840963 -0.0013688323087990284 0.0015010350616648793 7.97439191956073E-4 0.0035358380991965532 -5.397796630859375E-4 0.0028645889833569527 0.003777905600145459 9.33679926674813E-4 0.0017317038727924228 4.868525138590485E-4 2.038264210568741E-4 -0.0040100207552313805 0.003603669349104166 0.0038104993291199207 -6.711491732858121E-4 0.0018497067503631115 0.0023955709766596556 2.738571201916784E-4 -0.004143292084336281 0.003908053040504456 0.0042991070076823235 0.0014922362752258778 0.001208143774420023 -0.0034728734754025936 -0.0016528958221897483 1.6025900549720973E-4 -0.0015739041846245527 -0.0036545193288475275 6.718033691868186E-4 -0.003352218773216009 0.0033253508154302835 0.0028089391998946667 -0.0014195027761161327 -0.004164557904005051 -0.004625482950359583 0.0028474556747823954 -7.933062152005732E-4 -0.003554432885721326 -0.004212408326566219 -7.757514686090872E-5 -0.0027500176802277565 -0.0023502495605498552 -0.0029647178016602993 0.0034949244000017643 9.751808829605579E-4 -0.004336589016020298 -0.002545373048633337 -0.004841565620154142 9.471553494222462E-4 0.0028373897075653076 -9.752500336617231E-4 -0.0018959990702569485 -0.004383405204862356 9.143680217675865E-4 2.485763980075717E-4 -0.002543978625908494 -7.294249371625483E-4 0.0019073450239375234 -0.004464661702513695 -0.004796619527041912 0.003488481743261218 -0.0012658637715503573 4.8175573465414345E-4 0.004293010104447603 -0.003522827522829175 9.844100568443537E-4 0.004794944077730179 -1.7460256640333682E-4 2.1178126917220652E-4 -8.557555265724659E-4 -0.0044958321377635 6.549448007717729E-4 0.0016844958299770951 0.0015917712589725852 -0.0031530875712633133
order 5.990207428112626E-4 0.004399411845952272 0.001890797633677721 -8.517950482200831E-5 0.0018953073304146528 -5.259960744297132E-5 0.0016744988970458508 1.0338961874367669E-4 -0.004856794606894255 0.004648278933018446 0.0038368338719010353 0.002136721508577466 -0.002143443562090397 0.003188851522281766 2.8203666443005204E-4 0.004972136113792658 -8.106615860015154E-4 -0.0013454187428578734 0.0010458582546561956 0.003541897516697645 -0.004343397915363312 0.0028007281944155693 0.001274632173590362 0.0016450125258415937 0.0022979623172432184 -1.5641451682313345E-5 7.973175961524248E-4 -0.002264754381030798 0.002152011962607503 0.0013015615986660123 0.002645439002662897 -0.00301953824236989 0.0036987310741096735 -5.209499504417181E-4 0.0032950430177152157 -0.004524285905063152 -0.004295205697417259 0.004759376868605614 -0.002011839998885989 -0.0014564278535544872 0.0018550348468124866 0.002908750670030713 0.004023910034447908 0.001981000415980816 8.460092358291149E-4 0.003226363565772772 -0.0029557461384683847 2.157121925847605E-4 -8.609521319158375E-4 0.00141626235563308 0.00246617803350091 -0.004013484343886375 -0.0018837163224816322 -0.004870640579611063 -0.0033211505506187677 -0.0029230110812932253 -8.324849768541753E-4 -0.00302287214435637 7.128471042960882E-4 -0.004180284682661295 -0.0035087924916297197 7.568168803118169E-4 -0.0017132243374362588 -8.532237843610346E-4 0.004504031036049128 -4.5582622988149524E-4 -0.0025746014434844255 -0.004708246793597937 -0.0034440928138792515 7.359946030192077E-4 -0.003647766076028347 6.051004165783525E-4 0.0014636170817539096 0.0030696552712470293 -0.003024221630766988 6.378787802532315E-4 -0.003284978913143277 -0.0011856385972350836 4.782217729371041E-4 2.193403197452426E-4 -0.0028096199966967106 0.0038413256406784058 0.0016732584917917848 -0.0037508823443204165 -2.396547788521275E-4 0.002212241291999817 6.464475300163031E-4 -0.0034160339273512363 0.004018394276499748 0.004656682722270489 0.0028799534775316715 0.0012250709114596248 -2.4340301752090454E-4 -0.0010694005759432912 -0.0030977288261055946 5.800551152788103E-4 -0.004357418976724148 0.004949737805873156 -6.891852826811373E-4 0.0030781172681599855
showedcardiomegaly 0.00458693690598011 0.004252748563885689 0.0029449700377881527 0.0018312663305550814 6.955450517125428E-4 -0.0026761412154883146 0.0021879267878830433 -0.002228363184258342 -0.00489073945209384 -0.0013604133855551481 0.0012230693828314543 -0.0017751938430592418 5.293190479278564E-4 0.0030894367955625057 -8.869421435520053E-4 -0.004795028828084469 3.614109882619232E-4 -4.845613148063421E-4 0.0012198740150779486 5.691182450391352E-4 -0.0022335704416036606 0.0019360983278602362 -0.004481693264096975 0.002407324267551303 -0.0021996560972183943 -2.2224217536859214E-4 5.438321968540549E-4 0.0011163967428728938 -0.0015568399103358388 0.0038948035798966885 -0.0017485806019976735 -0.004826642107218504 0.00308865774422884 1.7964183643925935E-4 -0.00318719120696187 -0.0011596595868468285 -0.0040045143105089664 4.8173070535995066E-4 0.0021247733384370804 0.002400406636297703 7.723605376668274E-4 -0.0018504044273868203 -0.0036332267336547375 0.002456661546602845 0.0014373892918229103 -0.004403883125633001 -0.0018729361472651362 -0.0019980079960078 -0.0025841735769063234 0.003686420852318406 -0.0022825999185442924 -0.004980210214853287 0.0032662283629179 0.004544777330011129 0.0028595125768333673 9.959471644833684E-4 -4.4537903158925474E-4 -1.716488623060286E-4 -0.0034946983214467764 -0.004733595065772533 -0.0012234252644702792 0.001692553167231381 0.0033919222187250853 -0.001239643432199955 0.0025258087553083897 -0.0035110944882035255 -0.004837551154196262 0.0031626105774194 0.004164067097008228 0.0024429268669337034 0.004082062281668186 9.194767335429788E-4 0.003513588337227702 0.004795919172465801 0.004517135675996542 7.149535231292248E-4 0.0012213075533509254 -0.0017960366094484925 0.001524397754110396 -0.001484549604356289 -0.001264621620066464 -0.0048143295571208 0.0026293820701539516 -0.0019831713289022446 -4.751390079036355E-4 4.687905402533943E-6 -0.004278179723769426 -0.0013149630976840854 0.0033589880913496017 0.0010659629479050636 0.004800353664904833 -0.002147229854017496 0.002722975565120578 9.718119981698692E-4 -0.0037253086920827627 -9.954202687367797E-4 0.0038466143887490034 -0.0019177052890881896 0.0026419716887176037 0.0024333386681973934
lp 0.0022935683373361826 0.004678834695369005 2.757215406745672E-4 -0.002690849592909217 0.0039035563822835684 0.0018917459528893232 0.003917013294994831 0.0016955905593931675 0.004391408059746027 -0.003931861370801926 0.002970227040350437 0.001300885109230876 -0.002670845715329051 8.441651007160544E-4 -0.001259072683751583 7.517475169152021E-4 -0.0026558327954262495 -0.0032639186829328537 0.0036954088136553764 0.0016534305177628994 0.00449396250769496 6.984538049437106E-4 0.003434589598327875 0.0038273013196885586 6.926119094714522E-4 -0.0027225064113736153 7.347392966039479E-4 9.868937777355313E-4 0.002925496781244874 -0.0022684577852487564 0.002201489172875881 -0.0017853763420134783 3.2198906410485506E-4 -0.004100082442164421 0.001200075726956129 -0.003101479960605502 -0.0026482928078621626 8.985173772089183E-4 0.00449955090880394 -0.003946319688111544 0.00407162681221962 -0.003146451897919178 -0.003062432399019599 0.0033859240356832743 -6.718254298903048E-4 0.0017943376442417502 0.0040939245373010635 7.173818303272128E-4 -0.004359008278697729 0.0010768496431410313 0.0030012810602784157 5.993539234623313E-4 -0.003183899447321892 9.365368168801069E-4 -0.0024115610867738724 1.9837856234516948E-4 0.003427528077736497 0.0025789982173591852 0.002266631694510579 -4.3006541091017425E-5 0.0031849921215325594 -0.004731405526399612 2.3358047474175692E-4 -8.03006871137768E-4 -0.0032582441344857216 0.0029570781625807285 0.0013985740952193737 -6.216883775778115E-4 -0.003759339451789856 0.004466121084988117 0.0014217752031981945 -0.002183082979172468 -0.0011672097025439143 0.0032715285196900368 0.0011472100159153342 -0.0013276762329041958 0.0046661412343382835 -0.0015466591576114297 -0.003995442297309637 0.0036678456235677004 0.0025218850933015347 -0.0024907863698899746 -6.933090044185519E-4 -0.0017404368845745921 -0.0020280880853533745 0.004285301547497511 -0.0019163504475727677 -3.6633998388424516E-4 -0.00395752489566803 0.0037414550315588713 -0.0029322796035557985 0.003785120788961649 -0.004923467990010977 -0.0017678639851510525 0.004780009854584932 -0.0013299316633492708 -0.003702058456838131 0.0030335474293679 -0.0018908223137259483 1.5511691162828356E-4
showedsome -0.0013055047020316124 0.003977999556809664 -0.004839289467781782 -0.00254555931314826 0.004665775690227747 0.0021444421727210283 -0.0016926985699683428 9.035771945491433E-4 0.0018824535654857755 -0.002825387055054307 -0.002668052213266492 0.0035571001935750246 7.493001176044345E-4 0.0026258165016770363 8.168452768586576E-4 -0.0042238081805408 0.001626757439225912 0.003539019264280796 -0.003965338692069054 0.0018244767561554909 -0.003804883686825633 0.0016782379243522882 0.0035271167289465666 0.0018032049993053079 5.349934144760482E-5 -6.716767093166709E-4 -0.004090874921530485 -0.001191421179100871 7.737487321719527E-4 -0.0011830473085865378 9.514910052530468E-4 0.0020513993222266436 -0.0011587083572521806 0.004955845419317484 -0.001416037674061954 0.003043706528842449 0.004339584615081549 0.0034291630145162344 7.933389861136675E-4 -0.0045648119412362576 -0.0016337222186848521 0.004220076370984316 0.0014261043397709727 -0.0023908831644803286 0.0014986771857365966 -6.410867208614945E-4 2.508658217266202E-4 0.004121542442589998 -0.003145878668874502 -0.0035142230335623026 0.0012322342954576015 0.0019447392551228404 -0.0026251741219311953 -0.0014660644810646772 -0.004857808817178011 -9.68664899119176E-5 -0.002694163005799055 -0.0016572370659559965 0.0022523528896272182 -0.0024302899837493896 -0.002426446881145239 -0.0011242020409554243 0.0038413142319768667 -0.003397304331883788 0.0016988891875371337 0.0028526694513857365 -0.0038735619746148586 0.0011150920763611794 -0.002192275132983923 -0.0021234285086393356 -0.004559718072414398 -0.004941702354699373 -0.0022245750296860933 -0.002732615452259779 -0.004054573364555836 0.0018409020267426968 0.004806408658623695 3.243946994189173E-4 -0.0027601923793554306 0.0039984602481126785 -0.001070111058652401 4.7980010276660323E-4 0.003990274854004383 0.0032222962472587824 -0.0017718374729156494 -0.004952712450176477 0.0012049447977915406 7.574391202069819E-4 -0.003962641581892967 -7.925093086669222E-5 0.0037205673288553953 0.0035934161860495806 0.002269132062792778 0.0028338986448943615 -9.240510989911854E-4 0.004059958271682262 -0.0027585416100919247 0.0021972537506371737 0.003547558793798089 0.0018758588703349233
coronary -0.002434869995340705 0.004506316035985947 5.5105090723372996E-5 -0.003736353712156415 0.00322412489913404 0.002718712203204632 0.0018756192876026034 -0.0031295304652303457 0.003633422777056694 0.0021846084855496883 0.002263958565890789 0.004095015581697226 -0.003143216483294964 0.002214025938883424 0.002171012805774808 0.003296490991488099 -0.004402495454996824 0.0038927572313696146 -8.614301914349198E-4 -0.0017280939500778913 -0.0018506598426029086 0.004162761382758617 0.0026872188318520784 0.001696886378340423 -6.140065379440784E-4 -1.6252725617960095E-4 0.003519305493682623 -0.0019303279696032405 0.00209918268956244 -0.0016482151113450527 -0.0010979154612869024 -7.378459122264758E-5 7.886660168878734E-4 -0.004679269157350063 -3.5294174449518323E-4 0.0032383769284933805 -0.0014794289600104094 -0.0024278981145471334 0.0026183598674833775 -0.004848891869187355 -0.004325961694121361 -0.0019945064559578896 0.0049457848072052 -0.0036505889147520065 -0.0017934903735294938 0.0028191644232720137 0.003595386166125536 0.0017780107446014881 0.003751148469746113 0.004436513874679804 0.0020216936245560646 -0.0019505501259118319 -0.0024856533855199814 -0.0036862355191260576 4.456466413103044E-4 0.001675714855082333 -2.977791300509125E-4 -0.0031760651618242264 0.0030588579829782248 0.004258797969669104 5.206000641919672E-4 0.002699109958484769 0.0015105956699699163 0.0012464362662285566 0.004185336176306009 0.004189025145024061 0.0029146866872906685 0.003909324295818806 0.0026859797071665525 0.0023947793524712324 0.0015224248636513948 0.0044531975872814655 -0.0034194791223853827 -0.0021874227095395327 0.003019984345883131 -0.004534407053142786 -0.0024675733875483274 0.0018512469250708818 -0.004714238923043013 8.216858259402215E-5 0.0012101286556571722 -0.0022147863637655973 0.0032002127263695 -0.0031317155808210373 0.0047330474480986595 0.004324617329984903 -0.001632634666748345 -0.0024906841572374105 3.3330321457469836E-5 0.0014947259332984686 0.002825084375217557 -0.0019700219854712486 0.0030532688833773136 -0.001516158925369382 7.044011144898832E-4 -0.0023198372218757868 -0.004305399022996426 9.107571677304804E-4 9.649014682509005E-4 0.0030750876758247614
performed 0.0015715396730229259 -0.0022580858785659075 -8.548522018827498E-4 -0.0016406923532485962 -0.0040508657693862915 0.003294128691777587 -0.0026256931014358997 0.003844692138954997 -0.0037916565779596567 -0.004664370324462652 -0.0010322359157726169 -0.0011667483486235142 0.003352035768330097 -0.0025292858481407166 -0.0011353370500728488 -0.003504428779706359 -0.0012417420512065291 7.88988487329334E-4 -0.0033339678775519133 -0.0045093451626598835 4.3550849659368396E-4 0.004866275005042553 -0.004421236924827099 -0.0023872870951890945 8.449870510958135E-4 0.003470082301646471 -0.003930713981389999 -0.0012321800459176302 -0.0011491068871691823 -0.0031221765093505383 -6.062835454940796E-4 -0.004750628024339676 -0.0015035128453746438 0.0045359451323747635 -3.2176345121115446E-4 -0.0017342231003567576 -0.0023510048631578684 3.5904289688915014E-4 7.275962852872908E-4 1.7470121065343847E-6 -0.0014780398923903704 0.0024434125516563654 -0.003985135350376368 -0.0017397195333614945 0.003573632799088955 -0.0024223607033491135 -0.004099083133041859 3.168636467307806E-4 -0.0022736131213605404 -0.0016571736196056008 0.004360884893685579 -0.0015331140020862222 -0.003482985543087125 0.004826645832508802 0.002241702051833272 0.0049565560184419155 -0.00151763204485178 0.004187310114502907 0.0021607596427202225 6.974416901357472E-4 -0.0040902914479374886 0.0026149405166506767 -0.0040646763518452644 9.74600319750607E-4 0.0043332986533641815 0.0016552811721339822 -0.0037425560876727104 -0.0022401795722544193 -0.002174555091187358 0.0018870312487706542 7.27612990885973E-4 -0.0033415318466722965 5.610149819403887E-4 9.023600723594427E-4 -0.004887434188276529 0.003416515653952956 -0.0019011956173926592 -0.002894748467952013 -0.004712139256298542 -0.003483240492641926 0.0017750519327819347 0.0013512438163161278 0.003117521293461323 -0.004675904288887978 -0.003844811348244548 -0.004371888469904661 -0.0020908843725919724 -0.0036506708711385727 -0.0035328122321516275 0.0026294344570487738 -0.004184229765087366 0.0013096374459564686 -6.786808371543884E-4 0.0030007779132574797 -0.004386793822050095 0.003300064243376255 -0.001800607773475349 -0.002535878913477063 -3.9257167372852564E-4 0.0020957321394234896
boluses 0.0030218232423067093 -0.004132913425564766 -0.0015258768107742071 -7.625633734278381E-4 0.003447785275056958 -0.003911436069756746 -0.004612671677023172 0.0012979316525161266 0.00158652663230896 0.0021205150987952948 2.1780967654194683E-4 -0.004155685659497976 -0.004121039528399706 -0.0013378807343542576 -7.735559483990073E-4 -0.0026440180372446775 0.003029345767572522 8.297878666780889E-4 -7.607069564983249E-4 -0.002568337367847562 -0.0017569640185683966 -0.0040916558355093 0.0026157039683312178 -0.002258450025692582 -0.003628316568210721 -0.004982332699000835 -0.004924864042550325 0.0038727587088942528 -7.678747060708702E-4 -0.0044014109298586845 4.029828414786607E-4 0.004438495729118586 -0.0019297042163088918 -0.0025322025176137686 -0.0018802413251250982 -0.0039040567353367805 0.0017021220410242677 0.004077540244907141 -0.001366734504699707 -0.0011595183750614524 0.0028509735129773617 -0.004677793011069298 -0.003271309658885002 -0.004627191927284002 0.004379719961434603 0.0013737285044044256 0.0027833860367536545 -0.002365819411352277 0.004769842140376568 0.0016106176190078259 2.9562116833403707E-4 9.12251474801451E-4 0.0024066900368779898 0.0047606127336621284 0.003970143850892782 -0.0041010137647390366 -0.0029762692283838987 -0.001459966297261417 -0.0030510693322867155 0.004313741810619831 0.0028348129708319902 0.0011828577844426036 0.0010535812471061945 -0.001208411413244903 0.0048496900126338005 0.0014956688974052668 0.004967281594872475 0.0037014626432210207 0.00206063617952168 -4.2574465624056756E-4 0.0027256959583610296 0.0024199611507356167 0.003989610821008682 -0.0021833977662026882 -0.0026850057765841484 -0.0032220652792602777 0.004973555915057659 -0.0016161599196493626 0.003951769322156906 -0.001536017982289195 0.004663911648094654 -0.002144960453733802 1.2634575250558555E-4 3.272145986557007E-4 -0.004625115543603897 0.001248117652721703 0.0016583376564085484 0.0036826073192059994 -0.0014506303705275059 0.0015227370895445347 -1.1444598203524947E-4 0.004595349542796612 -0.003580233780667186 -0.0024880096316337585 -3.1730561750009656E-4 0.001284993253648281 0.0047663915902376175 -0.001689766999334097 -0.0031184034887701273 4.537880522548221E-5
status -0.0030367684084922075 -0.0024545129854232073 -0.0018351427279412746 0.003829663386568427 0.001302256598137319 0.004790752660483122 -6.266901036724448E-4 -1.7380625649821013E-4 0.004429346416145563 -0.0022234544157981873 -0.004570871125906706 -0.0035892499145120382 0.0015123385237529874 0.0016667783493176103 -0.0011527532478794456 0.003786968532949686 0.004426604136824608 -0.002790873870253563 0.0040144408121705055 0.004067607689648867 0.003621448762714863 0.002939766040071845 0.0014574980596080422 -8.883550763130188E-4 -0.002058607991784811 -0.00147476966958493 -0.001221271464601159 -0.0021371138282120228 4.016435123048723E-4 -0.0022643161937594414 -0.003943941555917263 -0.0013827797956764698 0.004246460739523172 -0.00309119769372046 0.003543194616213441 -0.0014534643851220608 -0.0026559054385870695 1.7245531489606947E-4 0.0022072703577578068 9.546017390675843E-4 -1.0089129500556737E-4 0.0038625227753072977 0.0020060993265360594 -9.278503130190074E-4 3.074306296184659E-4 0.0013695722445845604 -0.0036680924240499735 -3.573069116100669E-4 -0.0034015870187431574 -8.285293006338179E-4 -0.002404916100203991 0.0015841382555663586 -0.001574067515321076 -0.0018962845206260681 0.003912073560059071 -9.897926356643438E-4 0.0023316056467592716 -0.002410943154245615 5.675029824487865E-4 -0.0014066719450056553 0.00192813400644809 -0.004594959784299135 0.0013840693281963468 0.0017177629051730037 -4.2981922160834074E-4 -0.003436707891523838 0.0016717076068744063 0.0017928045708686113 0.0020946389995515347 -0.003016500500962138 0.00398141797631979 0.0013662016717717052 0.0013596510980278254 0.0026670079678297043 -0.004174240864813328 0.0024772172328084707 -0.004389735404402018 -0.0012858330737799406 0.004149588290601969 0.0015804857248440385 2.2420466120820493E-4 0.002212136285379529 0.003221158403903246 -0.001937759225256741 0.0033968358766287565 -0.002918193582445383 -0.0014320010086521506 0.0037868565414100885 0.0020188039634376764 -0.004880025051534176 -0.004711884073913097 -0.004753841552883387 -9.694022010080516E-4 -0.0014659902080893517 -0.00376519444398582 -0.0030714881140738726 -0.003909747116267681 -0.003762445179745555 -9.782284032553434E-4 -0.0027604824863374233
hosp 0.00452581187710166 -0.003756794845685363 0.0013317943084985018 -0.004033377859741449 0.0023730159737169743 -0.00487877894192934 -0.0038417596369981766 1.4483094855677336E-4 0.002568051917478442 -0.0044150445610284805 -5.283248610794544E-4 -0.0017593392403796315 -0.0042428867891430855 -0.003981808200478554 0.003053882624953985 8.01504822447896E-4 0.0031363482121378183 0.0010520899668335915 -0.004750753752887249 -0.0018494686810299754 -0.0032861893996596336 6.972080445848405E-4 0.001532393740490079 -0.0012838462134823203 1.303535682382062E-4 0.004446852020919323 0.004299134016036987 -0.0038257818669080734 0.001305061625316739 -0.0026166201569139957 -0.004806202836334705 -0.003149794414639473 -0.0016639706445857882 0.00161778274923563 6.807172321714461E-4 -3.6785335396416485E-4 -0.0022246979642659426 0.003331031883135438 -0.0014087408781051636 -0.0016500285128131509 2.6236355188302696E-4 0.0017006492707878351 2.639639424160123E-4 -0.0045978049747645855 -6.046983762644231E-4 -5.913138156756759E-4 -3.9104640018194914E-4 -8.854064508341253E-4 0.0023291970137506723 -0.0016296360408887267 0.0035737233702093363 0.0015893530799075961 0.004121791105717421 -0.003080485388636589 0.0017350512789562345 0.0034976780880242586 4.932904266752303E-4 0.001053212326951325 0.0012142444029450417 0.0010123419342562556 0.002791138831526041 0.0035661004949361086 0.00314003461971879 -0.00476887496188283 -0.0022318700794130564 0.0032707792706787586 -0.0016991070006042719 0.004353029653429985 0.0037282872945070267 -0.00374713190831244 -0.0027409689500927925 0.0015058511635288596 -3.5138934617862105E-4 -0.004301107954233885 -0.0046894485130906105 0.0023525834549218416 0.004225286655128002 -0.004888408817350864 -7.161035900935531E-4 -0.003573829308152199 5.866390420123935E-4 -0.0011005994165316224 0.0034524088259786367 7.672333740629256E-4 1.5377164527308196E-4 0.004874313250184059 -0.0015098571311682463 -0.0013326958287507296 5.249863606877625E-4 0.004540907219052315 0.002547900192439556 -2.9952527256682515E-4 -0.004979385063052177 0.0033289389684796333 9.837091201916337E-4 -0.0023694976698607206 0.004068893846124411 -0.00198307354003191 -0.0018053039675578475 0.0037874251138418913
second -6.352692726068199E-4 -8.23752605356276E-4 4.8440933460369706E-4 2.880895044654608E-4 -0.004076193552464247 0.0016356426058337092 0.0021329717710614204 -0.0039009081665426493 -0.0028189236763864756 -0.002392510185018182 0.0026263254694640636 -0.0011061382247135043 1.6511678404640406E-4 0.003009398467838764 -0.003605470759794116 -0.001373864128254354 0.003197731915861368 9.15579788852483E-4 0.001185826607979834 0.0027385163120925426 7.3580740718171E-5 -0.004455848131328821 1.507920096628368E-4 0.0016328268684446812 0.0020323973149061203 -0.0015717089409008622 0.004652927629649639 -1.3248861068859696E-4 9.290462476201355E-4 -5.726605741074309E-5 -7.539126090705395E-4 -0.0022034707944840193 -0.0018208989640697837 0.0016426449874415994 0.002370475558564067 -0.0038251227233558893 -0.004028462804853916 0.0031792796216905117 0.004387619439512491 0.0049544707871973515 -0.001864455291070044 -0.004675085656344891 0.0011987960897386074 0.0023294598795473576 -0.0018349564634263515 0.0022618782240897417 0.0025509214028716087 0.0027563415933400393 0.0037532360292971134 0.0013769299257546663 0.0018392115598544478 -8.39094805996865E-4 -0.0031248130835592747 -1.368299126625061E-4 0.0044358461163938046 0.004375413525849581 2.5490164989605546E-4 8.197980932891369E-4 -0.004111438989639282 -9.889709763228893E-4 -2.966705069411546E-4 0.0023047495633363724 -0.0018242946825921535 0.0021393185015767813 0.0015882927691563964 0.004590658005326986 0.0027124022599309683 -0.0037646025884896517 -7.735073450021446E-4 -0.003913953900337219 8.183199097402394E-4 6.939143058843911E-4 0.0036750573199242353 0.0029962712433189154 9.763437556102872E-4 -0.002259068889543414 0.0020534831564873457 -0.004505458753556013 -0.0010744226165115833 0.0036286127287894487 0.00427875155583024 -8.137494442053139E-4 -0.0017265713540837169 0.004632167983800173 1.8414676014799625E-4 0.0021158200688660145 -7.444679504260421E-4 0.0032233698293566704 0.0017282628687098622 0.0026971311308443546 -0.001759788952767849 0.003495842916890979 0.0013649958418682218 -6.803682190366089E-4 -0.003915649373084307 -0.002668146975338459 0.0034563869703561068 -0.002596716396510601 -0.004973196424543858 -0.0025650232564657927
cva 0.004416434559971094 0.0027839988470077515 0.002407727763056755 7.298910641111434E-4 0.004668740089982748 0.004494203720241785 -4.598593804985285E-4 0.004657432436943054 4.963779356330633E-4 -0.0039350371807813644 0.0016086834948509932 -0.0011404624674469233 -0.0038332920521497726 -2.858674561139196E-4 -0.001331245875917375 -0.0035245150793343782 -0.0029857789631932974 -0.00375887518748641 0.00468826899304986 0.0011661386815831065 -0.004951001610606909 8.506214362569153E-4 -0.0016750729409977794 3.041988529730588E-4 0.0019536756444722414 -0.0014184570172801614 0.001493105897679925 -0.0019639625679701567 -0.0027382574044167995 0.003315766341984272 0.0013604271225631237 0.003540715668350458 -0.0016039368929341435 -0.0018676725449040532 -9.142616181634367E-4 0.00163397251162678 -0.0033017212990671396 0.0025971306022256613 -0.0024868370965123177 -0.0012738838559016585 4.120689700357616E-4 0.0024863744620233774 -0.0016619643429294229 -4.259803972672671E-4 3.6163092590868473E-4 0.001960175111889839 2.6273130788467824E-4 -0.0022780299186706543 -5.933001521043479E-4 -0.0045152991078794 0.004676083102822304 -0.004785557743161917 0.0031822831369936466 -0.0011112126521766186 0.003256526542827487 -3.0483902082778513E-4 0.0035128730814903975 0.0016025572549551725 -4.641309496946633E-4 8.054942009039223E-4 -0.003682195907458663 0.004839588422328234 -0.004370168782770634 0.0034322929568588734 6.974136922508478E-4 0.0016882740892469883 0.0047058528289198875 -0.003927288576960564 0.001005693688057363 -0.0030961346346884966 0.0040266308933496475 0.004218453075736761 3.715127822943032E-4 -0.003422363428398967 -0.0038967838045209646 -0.0038445875979959965 2.9354452271945775E-4 0.004867691546678543 0.004947736393660307 -0.0034524118527770042 -0.0030612938571721315 0.0019783396273851395 7.139045046642423E-4 0.00425503496080637 0.0018003529403358698 -0.002888998482376337 1.5627205721102655E-4 -0.0033262583892792463 0.004909117240458727 -0.001080161309801042 0.001975736115127802 0.0013846117071807384 0.004610135685652494 -9.534800192341208E-4 -0.0017137128161266446 -0.004211364313960075 -0.0014778712065890431 -0.0015961676836013794 4.6807824401184916E-4 -0.0014582190196961164
definitive -3.883495810441673E-4 0.0017094123177230358 -0.003001183271408081 -0.0024632010608911514 6.92244153469801E-4 -0.00435357540845871 0.002149558626115322 0.004432471003383398 -0.004650070331990719 0.0019232815830036998 5.769545095972717E-4 2.9387115500867367E-4 -0.0011681589530780911 -0.0044719562865793705 0.0017864912515506148 -0.003698948537930846 -0.004088747315108776 -0.003636839333921671 0.0020314306020736694 -0.003457179293036461 7.85623793490231E-4 0.002172473119571805 -0.0018887895857915282 -0.0048508294858038425 0.00236889417283237 -0.001295076566748321 -0.004066783934831619 -0.0015128314262256026 0.0013536035548895597 0.0034920924808830023 0.004969234578311443 -0.0011624243343248963 -0.004117010161280632 0.003513237228617072 -0.0028915575239807367 -0.0012720758095383644 -0.0010523480596020818 0.002428877865895629 -0.0015597263118252158 -0.0025154270697385073 -0.0017149352934211493 -0.00430217245593667 -0.004539553076028824 0.0030815834179520607 0.0030305993277579546 -0.0028220254462212324 4.328870854806155E-4 0.0033748710993677378 -9.457767009735107E-5 -2.1463424491230398E-4 -0.00390744348987937 -0.0037043725606054068 0.003367484314367175 -0.0035123592242598534 -0.0024626946542412043 -5.129408673383296E-4 0.0012193238362669945 0.0011255645658820868 0.0010065430542454123 0.004254811909049749 -0.00439444649964571 0.002378802979364991 0.002734801732003689 -0.0011265516513958573 -0.002805681899189949 -3.951430335291661E-5 -0.0013479405315592885 7.252198411151767E-4 -2.626437053550035E-4 -0.0023179990239441395 -6.194150191731751E-4 0.0020995514933019876 -0.004567373543977737 0.0012989449314773083 -0.0027620987966656685 0.001982852816581726 -0.004529079422354698 -0.002859459025785327 0.003637133864685893 -0.001133072073571384 9.106326033361256E-4 0.0011235076235607266 6.041097803972661E-4 -0.0010736181866377592 -0.003774968907237053 -0.004081633873283863 -0.003681718371808529 0.001993431942537427 1.3949394633527845E-4 -0.00341312144882977 0.0014954477082937956 0.001203100080601871 -0.0013252857606858015 -0.004700957331806421 2.7305482944939286E-5 0.001634798594750464 -7.816791767254472E-4 9.304970735684037E-4 0.0039380802772939205 -0.004196287598460913
dayshe 7.4378727003932E-4 0.004312277305871248 0.0026202434673905373 -0.0036511279176920652 -1.4567971811629832E-4 -0.0033600053284317255 -0.0035551947075873613 -0.002742949640378356 -0.0041916281916201115 -0.004699999466538429 -0.0010259628761559725 0.004162566736340523 -0.002212809631600976 0.001393238315358758 -0.0024106306955218315 -0.003959724213927984 -0.004375556018203497 -0.0014558992115780711 0.0022528236731886864 0.003789756912738085 0.004686083644628525 -0.0022922165226191282 0.0043121022172272205 -0.0031996117904782295 0.004286876413971186 8.911370969144627E-5 0.004894665442407131 -0.00417364202439785 -0.003366458462551236 -0.003574197180569172 -4.109185829292983E-4 -0.002623239066451788 -0.0015776363434270024 -0.0038836952298879623 -0.0020413496531546116 -0.00258166017010808 -0.002754902234300971 -8.46449751406908E-4 0.0010094237513840199 0.002725248923525214 0.003995981998741627 0.002851420547813177 0.0010837054578587413 0.0013413113774731755 -0.004669176414608955 -1.0104894317919388E-4 0.004180583171546459 -0.0043271612375974655 0.004279606509953737 -0.0049972329288721085 0.0046835108660161495 0.004050727933645248 0.003774598939344287 0.0019457763992249966 -0.002915931399911642 0.002601780230179429 5.803793901577592E-4 -0.0028688472229987383 0.0021517009008675814 -0.004504589829593897 -0.0023702390026301146 -5.120849818922579E-4 -0.002057983074337244 0.00330753275193274 -0.004830762278288603 1.9585668633226305E-4 0.004285167437046766 1.2482404417824E-4 -0.0034028314985334873 -0.0020548475440591574 0.003074451582506299 -0.0034327462781220675 -0.0032503765542060137 8.755201124586165E-4 0.0035883986856788397 0.0033650314435362816 -0.004625716246664524 0.0016282403375953436 -0.0023225117474794388 -3.512802650220692E-4 0.0018381791887804866 9.87169798463583E-4 -0.0024473590310662985 -0.002911193296313286 -5.192518001422286E-4 -0.004340252839028835 -0.004616826772689819 -0.003775885095819831 0.0017820942448452115 -0.00379169057123363 0.0035394192673265934 -0.0023398930206894875 0.002181223127990961 -0.0022903624922037125 -0.004064586013555527 -0.0034639278892427683 -0.0038510053418576717 -6.585705559700727E-4 0.004237293731421232 0.0010363035835325718
oxygen -0.004582422785460949 -8.837425848469138E-4 2.0319819668657146E-5 -0.003180084517225623 -0.0023987796157598495 -0.0013402950717136264 -0.0024939917493611574 -0.003512259107083082 0.00462293392047286 0.004581361543387175 0.0029269594233483076 5.384236574172974E-4 0.001531253452412784 7.173120975494385E-4 -0.0049534691497683525 0.004754908848553896 0.004176642280071974 -0.0027825962752103806 0.0032797467429190874 0.0021294336766004562 -1.615271030459553E-4 -0.0033319550566375256 0.0021232622675597668 -0.003332989290356636 -0.003031638218089938 0.004126185085624456 -0.004895729012787342 0.0036488259211182594 0.004411153960973024 -0.0021654481533914804 -0.0034002403263002634 -0.0013661212287843227 0.0032859265338629484 0.0014269340317696333 -0.004122420679777861 0.0024317288771271706 0.00417801970615983 -2.4155795108526945E-4 0.0016118150670081377 1.5840708510950208E-4 0.0025799197610467672 0.0032426256220787764 0.003361225128173828 0.004152656998485327 -3.1265884172171354E-4 0.003784188535064459 0.0015658867778256536 -1.7809272321755998E-5 0.00460436288267374 0.004918165039271116 -7.65301869250834E-4 -0.004238584544509649 0.0012484854087233543 -0.002527653006836772 -0.0015991914551705122 -0.004479250870645046 0.001374735846184194 -0.0019015761790797114 -4.150813911110163E-4 -3.782919084187597E-4 0.004075608681887388 2.982795122079551E-4 0.004369852598756552 -0.00471604336053133 -0.004672592505812645 -0.004214653745293617 -2.0373135339468718E-4 0.0013427222147583961 0.00447453698143363 -6.606969400309026E-4 0.0019310378702357411 0.0010489505948498845 -0.0029258960857987404 0.0038920610677450895 -0.003631592495366931 1.638740359339863E-4 -0.004185084719210863 -0.002875393023714423 -0.0022370093502104282 0.0028572212904691696 9.599614422768354E-4 0.001713374862447381 -0.004750935360789299 -0.004667241591960192 -0.0011055800132453442 0.003945187199860811 -0.003993351478129625 -0.0013021740596741438 -0.002560384338721633 0.0014916801592335105 -0.0026412575971335173 0.0019061500206589699 -0.0028080532792955637 -0.0035605025477707386 0.004252263344824314 0.0019358897116035223 -0.002692837966606021 -0.0015590509865432978 0.0012489503715187311 0.004795089829713106
count -0.0034605783876031637 -0.0034348145127296448 -0.003978128544986248 -5.359810311347246E-4 -4.471394349820912E-4 0.0047206212766468525 0.004627859219908714 -0.0025372731033712626 0.0038846253883093596 0.0048243338242173195 -0.004804294556379318 -6.023585956427269E-5 -6.79000630043447E-4 0.002757125999778509 -0.0032701799646019936 -0.001374394865706563 0.0027380716055631638 -0.0037518024910241365 -1.4487386215478182E-4 0.002710607135668397 -0.0036305529065430164 0.0034957604948431253 0.002388596534729004 0.00462347874417901 0.003593216650187969 3.8418947951868176E-4 4.210859478916973E-4 3.507018118398264E-5 0.00417868560180068 -8.822113159112632E-4 -1.955398911377415E-4 0.002860704669728875 8.307158714160323E-5 0.0019620030652731657 0.002703543985262513 4.106914857402444E-4 -0.004712780937552452 -0.0028673678170889616 -0.0029362512286752462 0.0030391353648155928 -0.0037363211158663034 -0.004594458732753992 0.0028726786840707064 0.0022791915107518435 -0.0021973035763949156 0.004197200760245323 -0.0033810478635132313 -0.002381030935794115 2.0036161004099995E-4 0.004394154064357281 -6.171613931655884E-4 5.924350116401911E-4 -0.0024631526321172714 -8.575302199460566E-4 -0.004450786858797073 4.66763973236084E-4 0.0035951626487076283 -0.0017911815084517002 0.0032940758392214775 0.004455514717847109 -0.003892589593306184 1.865494268713519E-4 0.003486393019556999 -0.004368634428828955 -0.0022177586797624826 -5.566918989643455E-4 -0.001824651611968875 0.002333984477445483 0.003278990974649787 0.0045420946553349495 -0.0035811299458146095 0.0014689284143969417 -7.765123154968023E-4 -0.001190802431665361 -0.00404647272080183 0.003731014207005501 -0.004681221675127745 0.003917708992958069 -0.0034761724527925253 0.003038278315216303 -0.0037663113325834274 -0.0031473368871957064 4.08892025006935E-4 -0.003891142550855875 -0.002717375522479415 0.0022854399867355824 -4.7946185804903507E-4 0.003583338810130954 0.0015081006567925215 0.002343387110158801 0.004733928944915533 0.0019077372271567583 0.002004101872444153 -8.966404129751027E-4 0.004269481170922518 -0.002894342178478837 0.0042452276684343815 -0.002894203644245863 -6.438458221964538E-4 -5.75346639379859E-4
previously 0.003892420558258891 8.306640665978193E-4 0.0030790173914283514 -0.004054364748299122 -0.004542869981378317 0.002265741117298603 -6.902825552970171E-4 0.004791927523910999 0.0034127598628401756 8.890354656614363E-4 0.004162456374615431 -0.002493022009730339 0.0038259404245764017 -0.0030314549803733826 0.0013500190107151866 0.003367043798789382 -2.2233783965930343E-4 0.0030284069944173098 -0.0046614534221589565 0.0036318099591881037 -0.004332466516643763 0.0034187091514468193 3.8100601523183286E-4 0.0036681098863482475 0.0010725581087172031 -0.004512570798397064 -0.004125713836401701 0.0032959438394755125 -0.0029448724817484617 -0.0038305085618048906 0.001718226121738553 -0.003408386604860425 -4.905379028059542E-4 4.13216941524297E-4 0.0027233040891587734 0.0032723438926041126 0.004032743629068136 1.1371493019396439E-4 -0.001813163748010993 0.003895743517205119 0.003073494415730238 0.002475931541994214 0.0020989524200558662 0.0027578615117818117 -4.683861043304205E-4 0.0010194981005042791 -0.002157469978556037 2.3943543783389032E-4 0.0036621750332415104 -0.0028965508099645376 0.002898500533774495 -0.004645871929824352 -0.004030660260468721 -0.0030652049463242292 -0.002056458033621311 -0.004216420464217663 -0.00173681671731174 0.0037856334820389748 0.0021615230944007635 0.004682762548327446 -0.004445972852408886 0.0034788823686540127 -0.0025397134013473988 -0.0020522931590676308 -6.482815952040255E-4 0.004942372441291809 -0.0017718517920002341 0.0021349077578634024 0.004696809686720371 0.0024902552831918 8.567273471271619E-5 -0.0034485203213989735 -0.003708453383296728 -0.0047020274214446545 0.0018696492770686746 -0.0021180063486099243 -3.7597506889142096E-4 0.003254685318097472 0.00236226967535913 -0.002903380896896124 4.0282070403918624E-4 -0.0015761435497552156 0.0028757823165506124 -0.004386814311146736 -0.004867830313742161 0.0026393658481538296 -0.0010142079554498196 0.0029225964099168777 -0.0034906757064163685 0.0016360074514523149 9.402621071785688E-4 0.002889745868742466 -0.002847343683242798 0.0016209125751629472 -0.002391407499089837 0.002579730236902833 0.004935892298817635 4.7054828610271215E-4 -0.0016344726318493485 0.0021091848611831665
ulcerative 0.0023288887459784746 -0.003568375715985894 0.004409926477819681 -0.001935322885401547 0.0033496844116598368 0.004836931824684143 -2.4393320200033486E-4 -0.001829317188821733 -0.0028181076049804688 -4.152044712100178E-4 3.081220493186265E-4 -0.0015241110231727362 5.468946765176952E-4 -0.0023144346196204424 0.004766334313899279 -5.113026709295809E-4 0.001775378012098372 -0.004957263823598623 -0.004763319622725248 0.00198001554235816 -5.995696992613375E-4 -0.0027449685148894787 0.0025950372219085693 0.0011183684691786766 0.003338675480335951 -0.004978080280125141 -0.004879945423454046 6.168514373712242E-4 0.002810925943776965 0.004738637711852789 2.4132848193403333E-4 -0.004346521571278572 -2.2966087271925062E-4 -0.004629963077604771 -6.337141967378557E-4 0.0020981025882065296 9.993851417675614E-4 -0.004623453598469496 0.003657410154119134 -0.00440736161544919 0.0027454919181764126 4.2905568261630833E-4 -0.004117046482861042 6.275320192798972E-4 0.003427957184612751 -3.0283420346677303E-4 0.0032396840397268534 0.0014497333904728293 9.245258406735957E-4 -0.0013772574020549655 0.0012432008516043425 -0.004752243869006634 -8.624577312730253E-4 -0.001980847679078579 -0.00262578041292727 -0.0030356580391526222 0.0020115822553634644 -0.004815465305000544 0.0029006153345108032 -0.00254335580393672 0.0030750560108572245 -0.001784752937965095 -0.0018366592703387141 0.001530541805550456 -0.0027387759182602167 -0.00448839645832777 0.0015290104784071445 0.0038659744895994663 1.636457454878837E-4 -0.0035647836048156023 -0.0025511051062494516 0.003383536357432604 -0.0028970579151064157 0.0014444583794102073 0.0027005099691450596 -0.003151007229462266 -0.002864523557946086 3.116553998552263E-4 0.0021928567439317703 -4.295381950214505E-4 7.190066389739513E-4 9.982568444684148E-4 -0.0035954297054558992 0.004159361124038696 0.004299873020499945 2.975624811369926E-4 0.0025268911849707365 0.0037466096691787243 -6.414204835891724E-4 -0.0013190630124881864 0.0014450347516685724 -0.0020602059084922075 -0.0011479547247290611 0.0026505577843636274 -0.004813993815332651 0.004949016030877829 -0.004235668573528528 -0.001432643854059279 -0.0036590425297617912 0.003867929568514228
andheparin 7.932448643259704E-4 -0.0012307384749874473 -1.6439854516647756E-4 -0.0017409062711521983 0.0015437769470736384 0.003980317618697882 -6.9532630732283E-4 -0.0018980923341587186 -0.0012510812375694513 -0.003890048246830702 7.698059198446572E-4 0.00293088611215353 0.00481187691912055 2.1262228256091475E-4 -8.397111087106168E-4 -0.002235827501863241 0.0025289177428931 3.590405103750527E-4 -0.0012727215653285384 5.213379627093673E-4 0.004370680078864098 0.0027578873559832573 0.003414938459172845 -0.003267529886215925 -3.983229544246569E-5 0.0026239336002618074 0.0029064721893519163 -0.0032194259110838175 -0.003265343839302659 0.002142080571502447 -0.0019945844542235136 -0.0010157808428630233 -9.447956108488142E-4 -6.80154247675091E-4 -0.0030269238632172346 -0.003938489593565464 0.002671810332685709 -0.0012042650487273932 -0.0029633045196533203 -0.001025521196424961 -0.0010495972819626331 -0.0026633397210389376 -9.483724716119468E-4 0.001408999552950263 0.00185164634604007 -0.0041175540536642075 0.004283389076590538 -0.001962966052815318 -3.6014229408465326E-4 0.003789246082305908 0.004935416392982006 -0.0037436573766171932 -0.0044823335483670235 -0.002964490093290806 0.003784374101087451 0.0036296420730650425 0.004321991931647062 2.9221415752545E-4 8.715444710105658E-4 -0.0038230970967561007 -0.0023478143848478794 0.003519185120239854 -0.00423046387732029 0.004255020059645176 0.003027295460924506 0.0011448115110397339 2.2651195467915386E-4 -0.003991881385445595 -0.0031844330951571465 0.002193037187680602 -0.003062259638682008 -0.0037416494451463223 -0.004747014958411455 5.318761104717851E-4 -0.004384706728160381 0.0012611752608790994 -0.0015713643515482545 -0.0010713791707530618 0.003835963550955057 0.0013342261081561446 0.001141259097494185 0.004960845690220594 -0.0016555031761527061 -0.00393372168764472 0.004758089780807495 -0.002170716179534793 0.004098532721400261 0.002473285887390375 0.0012249285355210304 -0.002516508102416992 -0.0020023700781166553 -0.004369612783193588 -0.004443075507879257 0.0027021311689168215 7.00637698173523E-4 -3.402620495762676E-4 2.0007669809274375E-4 0.002800760790705681 0.003142980858683586 0.0041450620628893375
cxr -0.0017599621787667274 -2.3869007418397814E-4 3.1214713817462325E-4 0.0011395144974812865 -0.004782818257808685 -0.0015695339534431696 -1.1139542039018124E-4 -0.004684086889028549 0.0020194631069898605 -0.004840176552534103 -0.0034424387849867344 0.00298444926738739 0.004800308961421251 -0.002783766482025385 -0.0024634134024381638 0.0029484587721526623 0.004254167899489403 0.0034030962269753218 -0.003509925212711096 -0.004136345814913511 -0.001136766979470849 -0.0023407223634421825 -0.0037113663274794817 -0.004167454317212105 4.570948949549347E-4 0.0026683455798774958 0.0022554397583007812 -1.8003761942964047E-4 -7.706970063736662E-5 -0.0010649195173755288 0.0015078079886734486 0.0031237690709531307 0.004909845069050789 0.00244159996509552 -0.003925331402570009 -0.00207693874835968 -0.0036947145126760006 -0.0042191375978291035 -0.0014903572155162692 0.0017951446352526546 2.3065328423399478E-4 0.0010335319675505161 -0.004326677415519953 0.0037488597445189953 5.30608871486038E-4 0.004552526865154505 -0.0035952208563685417 -0.004429258871823549 0.004155756440013647 -0.0037635082844644785 -0.001971383113414049 0.0018309891456738114 0.0036436188966035843 -3.554433715180494E-5 0.0043151299469172955 0.0043557919561862946 0.0011012345785275102 9.224456734955311E-4 -3.81040561478585E-4 0.003418134991079569 7.777297287248075E-4 0.0034757100511342287 -0.0027661409694701433 0.0035957456566393375 -0.001476141158491373 8.96035460755229E-4 8.011615136638284E-4 0.004384575877338648 0.0032149713952094316 2.389240253251046E-4 0.0025901191402226686 3.294879279565066E-4 -0.0033159656450152397 -0.0014770907582715154 0.00442779716104269 0.004584139212965965 0.0033817219082266092 0.002976861083880067 0.0038730562664568424 -1.2436867109499872E-4 0.0029914039187133312 -0.0028572441078722477 -0.0019122711382806301 -0.002290223492309451 -0.004082643426954746 -0.0034167366102337837 -0.0030483573209494352 -0.0015185457887127995 -0.003785699838772416 0.0036156296264380217 -7.9279241617769E-5 0.004177864175289869 0.0018814194481819868 0.0010702084982767701 0.002512939041480422 0.0021264320239424706 -8.969572372734547E-4 -0.004106338135898113 -0.001356422551907599 -6.416085525415838E-4
as 0.00387411005795002 -0.002520087407901883 -5.648547667078674E-4 -0.003450531279668212 -0.0015678739873692393 0.00167496083304286 7.366543868556619E-4 -0.001852834247983992 -0.0038478332571685314 0.0033651525154709816 -0.0017644157633185387 0.004375929944217205 0.0032343161292374134 0.00302108284085989 0.004077836871147156 0.002954925876110792 -0.0021939806174486876 0.0036062789149582386 -0.004620029125362635 0.004601369611918926 0.002215459244325757 -0.00475707184523344 -0.0017726155929267406 0.002477973001077771 -1.0183125414187089E-4 5.426424904726446E-4 0.004192081280052662 1.1757611900975462E-5 -0.004077472724020481 -1.2297123612370342E-4 -1.8211900896858424E-4 -0.003556519513949752 0.0031911670230329037 0.002736735390499234 2.8080641641281545E-4 -6.358239334076643E-4 -0.003575501963496208 -0.0028288152534514666 -0.0017491319449618459 5.866193678230047E-4 0.0038998317904770374 0.003129698568955064 4.5630932436324656E-4 0.0037843012250959873 -0.0017312956042587757 0.0012637525796890259 -0.002335775177925825 -0.0025360388681292534 -0.004076415207237005 -0.00399797922000289 0.0029839705675840378 -4.5530765783041716E-4 -0.003929342143237591 -0.0035633451770991087 -1.2442261504475027E-4 -0.003927983809262514 -0.0028042856138199568 0.002507401630282402 0.0010087203700095415 0.0018519723089411855 2.728337130974978E-4 0.00451915618032217 0.004005974158644676 -0.0025871340185403824 -0.003746971720829606 -0.0031939244363456964 -0.0010898103937506676 0.0021120577584952116 0.002540743909776211 0.004800903145223856 0.002842819783836603 0.0012373930076137185 -0.0028528792317956686 6.537830922752619E-4 0.0018499130383133888 -0.002646934473887086 0.0027242267969995737 5.975746898911893E-4 3.648185811471194E-4 -0.004802527837455273 -0.004210866056382656 0.0011919897515326738 0.004603007808327675 -4.614848003257066E-4 0.004020971711724997 0.002001221291720867 7.681417628191411E-4 -0.0015154177090153098 -0.001975285355001688 0.0026468599680811167 0.0030326175037771463 0.004715852905064821 0.0012261909432709217 -0.0028210924938321114 0.004596752114593983 -0.0024589216336607933 0.0041671269573271275 -0.0023742602206766605 -0.0029067499563097954 -0.004752525594085455
r 0.002843185095116496 0.0033792995382100344 0.0017003375105559826 -0.0024751448072493076 -0.002512854291126132 4.3553352588787675E-4 0.003169338684529066 -0.001533982460387051 -0.00127081957180053 -0.0029419721104204655 -8.613974205218256E-5 -7.432350539602339E-4 0.004645160399377346 0.0032757811713963747 -8.018803782761097E-4 0.004263527225703001 -0.0011962547432631254 0.002201640047132969 9.832626674324274E-4 -7.057377952151E-4 3.47344292094931E-4 5.553149967454374E-4 -0.0030068354681134224 8.58275278005749E-4 0.003977491986006498 0.004299704451113939 -0.0036606998182833195 0.004764237441122532 -0.004745457787066698 0.001611948013305664 0.004473051521927118 0.0012321227695792913 -0.0019944668747484684 0.0028811991214752197 -0.0039130207151174545 -0.004464628640562296 0.0043088095262646675 -0.003631790168583393 -0.004662889521569014 0.0044726659543812275 -0.0043967897072434425 0.0021538669243454933 -4.508915590122342E-4 -0.0010119294747710228 0.0021558869630098343 -0.0035392011050134897 0.0021084314212203026 -0.003115847008302808 0.003347723977640271 0.0017094123177230358 3.877359558828175E-4 -0.0031291621271520853 0.0031532621942460537 -0.004820649046450853 1.984500850085169E-4 -4.820525646209717E-6 0.0025372940581291914 -0.0019334017997607589 0.0021942900493741035 -0.002375989221036434 -0.0027247455436736345 0.0016434467397630215 1.9174814224243164E-4 0.0018340694950893521 -0.0023650657385587692 -0.004558284766972065 0.0017104148864746094 0.003284643404185772 -0.002327393041923642 0.001007713028229773 2.175629197154194E-4 -0.0017017913050949574 -0.004770709201693535 0.0030537217389792204 -0.003652560990303755 0.002072343835607171 -5.468419403769076E-4 -8.79136030562222E-4 -0.0016734034288674593 -0.0031692697666585445 -0.0015363141428679228 -0.0010274467058479786 -0.001956150634214282 0.0021771646570414305 0.0014408236602321267 0.0035949437879025936 -0.004728572443127632 -0.0033284747041761875 0.0030214625876396894 0.0030668622348457575 0.003945052158087492 -0.0035131711047142744 0.002565010217949748 -0.0015235457103699446 3.5929144360125065E-4 -0.0013695687521249056 -0.0018467581830918789 0.0024210459087044 -0.0023449743166565895 -0.0031929078977555037
determine -0.001789691741578281 -0.004947712644934654 0.0021140307653695345 -0.0041864775121212006 0.0044733271934092045 0.0019097471376881003 2.180272276746109E-4 -8.102056453935802E-4 -0.001748836599290371 -0.0035945414565503597 0.0010436695301905274 0.0024773073382675648 -0.00379207544028759 0.0013450873084366322 0.0011365169193595648 0.0011721819173544645 0.0034048431552946568 -0.002754556480795145 2.3530721591669135E-5 -0.004209119826555252 -0.0020981747657060623 -0.004429118242114782 0.001541776699014008 -0.0021515213884413242 -0.0035400567576289177 0.0020735091529786587 -0.0031639286316931248 0.0030620640609413385 -0.0014628443168476224 -0.002724531339481473 -0.0019568868447095156 0.001854664646089077 -0.0014522585552185774 0.004329049494117498 0.004185744561254978 -0.003241905476897955 0.0017511266050860286 8.113032672554255E-4 0.004870424047112465 -0.002464093267917633 -0.003140534507110715 -0.002550650155171752 0.0014804190723225474 -0.003049965249374509 -0.00489372294396162 -1.674443410593085E-5 -0.0033569810912013054 0.004826575051993132 -0.0019490260165184736 -0.0034177908673882484 -0.004656671080738306 -8.332729066751199E-7 -0.0016640597023069859 -4.471337888389826E-4 0.0018925255862995982 0.0026411402504891157 7.561325910501182E-4 -0.0028476035222411156 -8.742630598135293E-4 -0.0020065573044121265 0.001994448946788907 0.0040695322677493095 -0.002345869317650795 -0.002676229225471616 0.003495697397738695 0.0041033001616597176 -0.002082409802824259 -0.003710084594786167 5.623787874355912E-4 0.004617055878043175 -0.00308302347548306 -0.0025723434519022703 0.0022061325144022703 -1.315334375249222E-4 0.004491522442549467 0.001122159417718649 -0.004781393799930811 0.004213305655866861 -4.730245564132929E-4 -0.0015275618061423302 -0.003766565816476941 0.0010966146364808083 -0.0028365710750222206 -0.0033762871753424406 -0.0024020823184400797 -1.4313459359982517E-5 -0.001012205146253109 0.002544113900512457 -0.001838341704569757 0.0016091382130980492 0.004626088310033083 -0.003988374024629593 0.0028711676131933928 -3.277900686953217E-4 -0.00207539857365191 -0.0021141082979738712 -5.126866744831204E-4 0.0012700987281277776 3.760212566703558E-4 0.0030292957089841366
analysis -0.0014371516881510615 7.60736467782408E-4 0.004347631242126226 -0.004486472811549902 -5.9004723880207166E-5 0.004786208737641573 -0.004505607299506664 -0.0026263755280524492 6.849843193776906E-4 0.002772945212200284 -0.004667551722377539 -0.004327189177274704 -0.0034905036445707083 -0.001266426988877356 2.65479669906199E-4 -9.62551508564502E-4 3.428673662710935E-4 -7.99553410615772E-4 -0.004481439013034105 6.686055567115545E-4 -9.886836633086205E-4 -0.004548052325844765 -0.002070316346362233 -3.6934256786480546E-4 0.0032405578531324863 0.0022291457280516624 9.142321068793535E-4 0.0025704794097691774 -0.002646451350301504 -0.0014752885326743126 0.0017535453662276268 -0.002663311315700412 0.004751116037368774 -0.0022635506466031075 0.00465327687561512 -0.004834834020584822 8.64167814143002E-4 -0.003739382140338421 -9.502658504061401E-4 -0.004436678718775511 0.0018952339887619019 0.002774608787149191 0.003014703281223774 0.003909016028046608 0.0031224798876792192 -0.0038999251555651426 -6.644999957643449E-4 -1.9105672254227102E-4 0.004899056162685156 -5.154934478923678E-4 -0.004055124707520008 -0.00390983372926712 0.002648737980052829 -0.002894936129450798 0.0010220909025520086 -5.59031090233475E-4 -0.002718707313761115 0.0038610463961958885 0.004069712944328785 -0.0035383254289627075 -6.61218145978637E-5 -0.004808678757399321 0.0037944018840789795 3.089421952608973E-4 0.002220656955614686 -5.76126272790134E-4 0.002699553966522217 6.848115008324385E-4 -0.0020877206698060036 0.0023642992600798607 -0.003049226012080908 -0.0048522427678108215 0.0017957395175471902 0.0038515490014106035 -0.0010373586555942893 0.00340495933778584 -9.035199764184654E-5 -0.004350071772933006 9.3557417858392E-4 0.002782609546557069 0.0014584738528355956 -9.25231899600476E-4 0.0017022169195115566 7.887870306149125E-4 0.004959087818861008 -0.0019158109789714217 4.33245295425877E-4 -0.0028129732236266136 -2.4254500749520957E-4 0.0046275462955236435 -8.196386625058949E-4 0.0036790233571082354 0.004219409078359604 0.0017403900856152177 0.004340327810496092 4.230540944263339E-4 -0.0033561703749001026 -0.003813712392002344 -0.002686758991330862 0.00464783888310194
lastname -0.004676980897784233 -0.0038593679200857878 -0.00274879252538085 0.002507611410692334 0.00330115738324821 -0.004927846137434244 -0.004376520402729511 0.004357872996479273 -0.004371576476842165 -0.0034281343687325716 0.001727136317640543 0.004391649272292852 0.003225350985303521 0.004259719979017973 0.0019132548477500677 -8.432287140749395E-4 0.0029924099799245596 0.00301528861746192 0.003654428757727146 -0.004730031359940767 -0.0013014175929129124 -9.373751236125827E-4 0.0032438880298286676 0.0027039051055908203 -0.004246019758284092 -0.0019532537553459406 -0.003231319133192301 -0.003251552814617753 -0.001824631355702877 0.004753773100674152 0.002835182473063469 -0.002094669034704566 -0.0012822976568713784 -0.003947958815842867 0.0036075282841920853 -0.004435969516634941 0.0032797253224998713 0.0017402101075276732 0.0039711580611765385 0.004810236860066652 0.004899542313069105 5.875092465430498E-4 -3.453236713539809E-4 -0.0013113656314089894 -0.003130652941763401 -0.0014663883484899998 0.0010489624692127109 0.0022063052747398615 9.184521622955799E-4 -0.0030235948506742716 -0.0024697408080101013 0.0029915410559624434 0.004114286508411169 -0.0024735797196626663 -0.004923134110867977 -6.198728224262595E-4 0.004437335766851902 -7.78083223849535E-4 0.0036208557430654764 0.0016148602589964867 -0.003221802646294236 -0.002793619642034173 0.00141689064912498 -0.0011380135547369719 -0.0028298913966864347 -0.0039950888603925705 2.076286036754027E-4 5.466770962812006E-4 0.0027445750311017036 5.059963441453874E-4 0.0014675580896437168 1.6402840265072882E-4 -0.001920726033858955 0.0035507483407855034 0.003383249742910266 6.422591395676136E-4 -0.0027270400896668434 -0.0017209133366122842 0.0034025628119707108 6.314873462542892E-5 -0.0024967435747385025 2.864354755729437E-4 -0.0027749009896069765 -1.7161041614599526E-4 0.00104659260250628 0.0017212640959769487 -0.0021417606621980667 0.0028954846784472466 -0.004083196632564068 -4.4888080446980894E-4 0.0023274391423910856 -0.0018862810684368014 7.45357247069478E-4 -0.004937309306114912 -9.227988193742931E-4 0.004672663286328316 -0.004743392113596201 -0.001922267721965909 -0.004060444887727499 -0.0021529323421418667
successhe 0.004732494242489338 0.0030194264836609364 -0.0016859665047377348 -6.036192062310874E-4 0.002326490357518196 0.004371648654341698 0.0048258644528687 0.004730003885924816 -8.350765565410256E-4 0.002140045166015625 -0.001131905009970069 0.003702139249071479 0.0017557847313582897 -6.004438037052751E-4 0.002224396448582411 0.001174785546027124 0.002700432436540723 0.0010248208418488503 8.149743371177465E-5 0.0014993882505223155 -0.003379198256880045 -0.0044968933798372746 -0.003141616005450487 -0.003425708506256342 -0.0015964412596076727 -0.004957355558872223 -0.0016117456834763288 -5.725353839807212E-4 0.0017561620334163308 -0.002115732990205288 -0.0033373034093528986 0.0011956572998315096 7.089936989359558E-4 0.004817785229533911 -2.1220445341896266E-4 0.0025610553566366434 0.003514637239277363 6.405198364518583E-4 -0.002703160047531128 -0.004113565199077129 0.0010398137383162975 -0.004384426865726709 -0.0025105879176408052 -0.00493817450478673 7.812792318873107E-4 7.88093195296824E-4 -0.003572801360860467 0.004895644262433052 0.003341177711263299 5.847614957019687E-4 -0.004826279357075691 -0.003931141924113035 -2.607670321594924E-4 0.001491671777330339 0.004989477340131998 -0.0017481646500527859 6.007170886732638E-4 0.003363017924129963 0.0020163143053650856 8.678185986354947E-4 -0.004121316596865654 0.0018674844177439809 -0.0013613322516903281 -0.003387701464816928 0.0027255178429186344 -0.0035033938474953175 0.0011636305134743452 -2.302193606738001E-4 -0.004540767055004835 -0.004501943942159414 -0.004211983177810907 3.7399173015728593E-4 1.0931193537544459E-4 -0.0029487982392311096 1.4747679233551025E-4 -0.002605615882202983 0.00276487460359931 -8.203866891562939E-4 0.004005689173936844 0.004552454221993685 5.576646071858704E-4 0.0016191876493394375 -8.293286082334816E-4 -8.732423302717507E-4 -0.0016102544032037258 -0.002258448861539364 -0.004467491991817951 -0.004310036078095436 -0.003585085505619645 -0.003849752014502883 -0.0021584525238722563 -0.0045054517686367035 0.002213313477113843 0.0010490692220628262 0.0018382895505055785 -0.002764248289167881 -0.0024665752425789833 -0.004970721434801817 -0.0042444621212780476 2.5417088181711733E-4
**month 0.004629120230674744 -0.0014402726665139198 0.0013803887413814664 -0.004109567031264305 -8.371227886527777E-4 -0.0028739022091031075 0.004567496012896299 -0.0035373454447835684 -0.004196962341666222 0.0031133699230849743 0.003490195842459798 0.0029401862993836403 0.0034389353822916746 -0.0014596086693927646 4.279881832189858E-4 -0.0011523314751684666 -0.004374255891889334 0.0013447296805679798 -0.0010089656570926309 2.6305377832613885E-4 -0.0049194516614079475 -0.0030536893755197525 -0.0030574649572372437 0.00448527280241251 0.003607254708185792 0.0033246588427573442 -0.003972985316067934 0.003824000246822834 0.00172136421315372 0.0034497356973588467 -0.004464611876755953 -0.002226419746875763 -0.0013610395835712552 0.001274662557989359 -0.0033446962479501963 -0.0034209052100777626 0.003114985302090645 0.003985180053859949 -0.0024468540214002132 -0.0011439130175858736 0.002201739465817809 0.0044747767969965935 -0.0028102449141442776 -0.0022219442762434483 0.0023059993982315063 0.0010512887965887785 -0.0010759830474853516 0.0022955231834203005 -0.0024343112017959356 -0.004715444520115852 -0.004768306389451027 -2.948906912934035E-4 -0.0025546487886458635 0.004616803489625454 0.003309943713247776 -0.0025894283317029476 0.004387012217193842 -0.004820610396564007 -0.004468481056392193 -0.0027513145469129086 -6.564581417478621E-4 -8.443763945251703E-4 0.0043391091749072075 4.638934042304754E-4 0.0039056993555277586 -0.0024622390046715736 -0.0014531728811562061 0.001352395978756249 -0.004113796167075634 -0.0031282573472708464 -0.003623867640271783 0.0029839640483260155 -0.004753814544528723 0.0029718298465013504 0.0016644906718283892 0.0028929549735039473 -9.47745458688587E-4 -0.0022163433022797108 3.3900976995937526E-4 0.004595717880874872 -0.004555195104330778 0.0028561109211295843 -0.0023322799243032932 5.137955886311829E-4 4.547584103420377E-4 -0.004551640711724758 0.0023173957597464323 -4.57426009234041E-4 0.002192944288253784 0.001096612773835659 0.004176627844572067 0.004661346785724163 0.001981376437470317 0.001541142468340695 0.0032711809035390615 0.004172990098595619 4.511403967626393E-4 -2.749365521594882E-4 0.0010486560640856624 -0.0012538942974060774
sating 0.0038963276892900467 -1.3736069377046078E-4 0.003416274208575487 0.004032565280795097 -0.0022830322850495577 -0.0024380527902394533 -4.984149127267301E-4 1.200580591103062E-4 0.004099888727068901 7.107520359568298E-4 -3.483965992927551E-4 -0.0030718385241925716 -1.7887711874209344E-4 0.00290780421346426 -0.003027878934517503 -0.0012445711763575673 0.0014466368593275547 0.0010809516534209251 -0.0038606191519647837 -0.003961700946092606 0.004864869639277458 0.003625615267083049 0.0017871749587357044 2.4345815472770482E-4 0.0015019661514088511 -0.003884597448632121 -0.004062954802066088 -0.0036775406915694475 0.0016883158823475242 -0.0041598365642130375 -3.2709777588024735E-4 7.980322698131204E-4 0.003641721559688449 0.0033921438734978437 0.002289644442498684 0.0035770440008491278 -0.003626710269600153 -0.0014744868967682123 0.0024500424042344093 0.0023979938123375177 0.0034753496292978525 6.599211483262479E-4 -0.001047299476340413 3.3812582842074335E-4 0.004840146284550428 0.004770889412611723 -0.0016731616342440248 0.0014959604013711214 0.0034768241457641125 0.0031092865392565727 0.004607893992215395 -0.0012447383487597108 -0.0015303421532735229 -0.0028014928102493286 -0.0027084085159003735 0.0023242728784680367 -0.001590063562616706 2.6817203615792096E-4 -0.0020877481438219547 0.0017217034474015236 -0.002686750842258334 -0.002846328541636467 0.002009471645578742 -0.0034558791667222977 -5.7561369612813E-4 0.0012265145778656006 5.79261795792263E-5 0.00283085647970438 -0.004926194436848164 0.0028596902266144753 -0.0024537250865250826 -0.0023621758446097374 -0.0030614202842116356 -0.004465203732252121 -0.001008779974654317 -0.0010217044036835432 -5.395635962486267E-4 -0.0036649152170866728 0.0031978243496268988 9.273111936636269E-5 -0.0035681556910276413 0.0035974550992250443 -0.00495905289426446 -0.001177205122075975 -0.0032260569278150797 7.400655886158347E-4 2.540421555750072E-4 -0.0030170404352247715 0.0017773992149159312 0.0012708776630461216 3.172957804054022E-4 0.004125156905502081 -0.0012392729986459017 -0.003587030805647373 0.0038342010229825974 -0.003972087986767292 0.002695981180295348 6.357121746987104E-4 0.0018216728931292892 -6.590500706806779E-4
overall -0.0035252347588539124 0.004042831715196371 -0.0012907972559332848 -0.0029968973249197006 -0.004369692876935005 0.004220625385642052 0.0048262448981404305 -0.0034417747519910336 0.0021349829621613026 -0.003211726900190115 0.00327516021206975 -7.512906449846923E-4 -0.004645864944905043 0.0018407696625217795 0.0024990129750221968 0.0026180821005254984 -0.004365010652691126 -0.001043725642375648 0.0023222416639328003 -7.763159228488803E-4 -6.500917952507734E-4 -0.00472052488476038 -0.0029349750839173794 0.0018131398828700185 0.0011366426479071379 -0.004853315185755491 -0.0026961290277540684 -3.8688391214236617E-4 -0.0025781607255339622 2.988189517054707E-4 0.004538044333457947 -0.0019451186526566744 -0.0032977527007460594 0.004444207064807415 9.984445059671998E-4 0.001332925516180694 -0.002400819445028901 5.572742084041238E-4 0.004800999071449041 -0.003167781513184309 -0.004980527795851231 -0.004406365565955639 0.0017017924692481756 -0.001370490761473775 -0.0021356367506086826 -2.2098720364738256E-4 0.004847733303904533 -0.001821617130190134 -0.004161892458796501 0.0036645252257585526 -2.8048278181813657E-4 -0.0033541179727762938 0.004590589553117752 4.646009183488786E-4 -4.0658621583133936E-4 -0.0044469404965639114 -0.0032938800286501646 -0.004791101906448603 -0.004615548998117447 -7.161796384025365E-5 -0.0016135061159729958 0.0024496293626725674 0.0024293046444654465 9.691059676697478E-5 -0.0035417405888438225 0.004247263073921204 -0.004237273707985878 -0.004713013768196106 -6.505188066512346E-4 0.003050433471798897 0.0024269907735288143 -3.9939224370755255E-4 0.003878347808495164 -8.457020157948136E-4 -0.004594743251800537 0.004906332585960627 2.3405074898619205E-4 0.0011921846307814121 -9.289226145483553E-4 -0.0017196675762534142 -0.00391970993950963 1.7088234017137438E-4 0.001096717664040625 -0.003970395307987928 0.00198604934848845 2.2649764730431343E-8 0.002088921144604683 0.0023519182577729225 -0.004312679637223482 0.0026187265757471323 0.0035743105690926313 2.990549837704748E-4 0.002948494628071785 0.004231811035424471 1.9549429998733103E-4 0.004159512463957071 0.004747539293020964 0.0028274136129766703 0.002446132944896817 -0.0010045465314760804
complained -3.288421139586717E-4 -8.582568261772394E-4 -0.0011673185508698225 -0.0013996962225064635 0.0037383425515145063 0.0016647368902340531 -0.004773288499563932 -0.0015319442609325051 -0.0025651901960372925 0.0037642293609678745 9.148549870587885E-4 -0.0028032369446009398 -0.003283715806901455 -0.003996847663074732 0.0027222316712141037 0.0027700101491063833 -4.368555673863739E-4 -6.319007370620966E-4 0.002835051389411092 0.002928148489445448 -0.0020540673285722733 0.0019028813112527132 9.035587427206337E-4 -0.002655713353306055 0.00488645676523447 0.004600826650857925 -2.0879774820059538E-4 0.004875852260738611 0.002489705104380846 0.004350209608674049 -0.001325117307715118 0.0036108135245740414 -0.0024309251457452774 -0.002146243117749691 0.0024152195546776056 -0.003485612804070115 -3.022104465344455E-5 0.0020056236535310745 -0.0048902896232903 0.00477205403149128 0.0015139048919081688 -0.003373469226062298 0.0026015089824795723 -0.0035388546530157328 5.410444573499262E-4 -0.004268473945558071 0.0015117669245228171 0.001503116451203823 0.002650759182870388 0.0018334751948714256 -0.0032972577027976513 0.0032405536621809006 4.318463907111436E-4 0.0021483355667442083 6.303995614871383E-4 0.004725135397166014 0.0011563056614249945 -0.0022547373082488775 -5.005705170333385E-4 0.004790365230292082 -5.1413121400401E-4 0.0015249383868649602 9.449422359466553E-4 0.00477032782509923 0.003968728240579367 -0.002781056798994541 -0.0030660247430205345 -0.0012876620749011636 9.726267890073359E-4 0.0025546313263475895 -0.003954727202653885 -0.004266258794814348 -0.004291794262826443 0.001831059460528195 -0.003294551745057106 -0.002114409813657403 -0.0030338040087372065 0.0027782355900853872 -0.003790568094700575 -0.00257471133954823 -6.198480841703713E-4 -0.0028626066632568836 0.004569855984300375 -1.9774526299443096E-4 0.0013948464766144753 -0.0039909519255161285 2.956610987894237E-4 -0.0021957186982035637 -0.0019618901424109936 4.716003022622317E-4 -0.00458935322239995 0.003970347810536623 0.0016991221345961094 0.004404825158417225 -0.0029071003664284945 -0.004113663453608751 -0.0019588961731642485 -0.0020996788516640663 -0.0036368570290505886 6.373381474986672E-4
